<?xml version="1.0" encoding="UTF-8"?>
<PMML xmlns="http://www.dmg.org/PMML-4_3" version="4.3">
    <Header copyright="Copyright (c) 2018 Software AG" description="Default Description">
        <Application name="Nyoka" version="4.1.0"/>
        <Timestamp>2020-01-14 17:51:58.131958</Timestamp>
    </Header>
    <DataDictionary numberOfFields="4">
        <DataField name="age" optype="continuous" dataType="double"/>
        <DataField name="income" optype="continuous" dataType="double"/>
        <DataField name="response" optype="continuous" dataType="double"/>
        <DataField name="segment" optype="categorical" dataType="integer">
            <Value value="0"/>
            <Value value="1"/>
            <Value value="2"/>
        </DataField>
    </DataDictionary>
    <MiningModel modelName="RandomForestClassifier" functionName="classification">
        <MiningSchema>
            <MiningField name="age" usageType="active" optype="continuous"/>
            <MiningField name="income" usageType="active" optype="continuous"/>
            <MiningField name="response" usageType="active" optype="continuous"/>
            <MiningField name="segment" usageType="target" optype="categorical"/>
        </MiningSchema>
        <Output>
            <OutputField name="probability_0" optype="continuous" dataType="double" feature="probability" value="0"/>
            <OutputField name="probability_1" optype="continuous" dataType="double" feature="probability" value="1"/>
            <OutputField name="probability_2" optype="continuous" dataType="double" feature="probability" value="2"/>
            <OutputField name="predicted_segment" optype="categorical" dataType="integer" feature="predictedValue"/>
        </Output>
        <Segmentation multipleModelMethod="majorityVote" missingThreshold="1">
            <Segment id="0" weight="1">
                <True/>
                <TreeModel modelName="DecisionTreeClassifier" functionName="classification" missingValuePenalty="1.0">
                    <MiningSchema>
                        <MiningField name="age" usageType="active"/>
                        <MiningField name="income" usageType="active"/>
                        <MiningField name="response" usageType="active"/>
                    </MiningSchema>
                    <Node id="0" recordCount="3000.0">
                        <True/>
                        <Node id="1" recordCount="834.0">
                            <SimplePredicate field="age" operator="lessOrEqual" value="31.5"/>
                            <Node id="2" recordCount="788.0">
                                <SimplePredicate field="age" operator="lessOrEqual" value="30.5"/>
                                <Node id="3" recordCount="582.0">
                                    <SimplePredicate field="age" operator="lessOrEqual" value="26.5"/>
                                    <Node id="4" recordCount="223.0">
                                        <SimplePredicate field="age" operator="lessOrEqual" value="19.5"/>
                                        <Node id="5" recordCount="178.0">
                                            <SimplePredicate field="age" operator="lessOrEqual" value="18.5"/>
                                            <Node id="6" recordCount="162.0">
                                                <SimplePredicate field="income" operator="lessOrEqual" value="199.23445892333984"/>
                                                <Node id="7" recordCount="63.0">
                                                    <SimplePredicate field="age" operator="lessOrEqual" value="16.5"/>
                                                    <Node id="8" score="0" recordCount="28.0">
                                                        <SimplePredicate field="response" operator="lessOrEqual" value="0.5"/>
                                                        <ScoreDistribution value="0" recordCount="28.0" confidence="1.0"/>
                                                        <ScoreDistribution value="1" recordCount="0.0" confidence="0.0"/>
                                                        <ScoreDistribution value="2" recordCount="0.0" confidence="0.0"/>
                                                    </Node>
                                                    <Node id="9" score="1" recordCount="35.0">
                                                        <SimplePredicate field="response" operator="greaterThan" value="0.5"/>
                                                        <ScoreDistribution value="0" recordCount="0.0" confidence="0.0"/>
                                                        <ScoreDistribution value="1" recordCount="35.0" confidence="1.0"/>
                                                        <ScoreDistribution value="2" recordCount="0.0" confidence="0.0"/>
                                                    </Node>
                                                </Node>
                                                <Node id="10" recordCount="99.0">
                                                    <SimplePredicate field="age" operator="greaterThan" value="16.5"/>
                                                    <Node id="11" score="0" recordCount="53.0">
                                                        <SimplePredicate field="response" operator="lessOrEqual" value="0.5"/>
                                                        <ScoreDistribution value="0" recordCount="53.0" confidence="1.0"/>
                                                        <ScoreDistribution value="1" recordCount="0.0" confidence="0.0"/>
                                                        <ScoreDistribution value="2" recordCount="0.0" confidence="0.0"/>
                                                    </Node>
                                                    <Node id="12" score="1" recordCount="46.0">
                                                        <SimplePredicate field="response" operator="greaterThan" value="0.5"/>
                                                        <ScoreDistribution value="0" recordCount="0.0" confidence="0.0"/>
                                                        <ScoreDistribution value="1" recordCount="46.0" confidence="1.0"/>
                                                        <ScoreDistribution value="2" recordCount="0.0" confidence="0.0"/>
                                                    </Node>
                                                </Node>
                                            </Node>
                                            <Node id="13" recordCount="16.0">
                                                <SimplePredicate field="income" operator="greaterThan" value="199.23445892333984"/>
                                                <Node id="14" score="1" recordCount="6.0">
                                                    <SimplePredicate field="response" operator="lessOrEqual" value="0.5"/>
                                                    <ScoreDistribution value="0" recordCount="0.0" confidence="0.0"/>
                                                    <ScoreDistribution value="1" recordCount="6.0" confidence="1.0"/>
                                                    <ScoreDistribution value="2" recordCount="0.0" confidence="0.0"/>
                                                </Node>
                                                <Node id="15" score="2" recordCount="10.0">
                                                    <SimplePredicate field="response" operator="greaterThan" value="0.5"/>
                                                    <ScoreDistribution value="0" recordCount="0.0" confidence="0.0"/>
                                                    <ScoreDistribution value="1" recordCount="0.0" confidence="0.0"/>
                                                    <ScoreDistribution value="2" recordCount="10.0" confidence="1.0"/>
                                                </Node>
                                            </Node>
                                        </Node>
                                        <Node id="16" recordCount="45.0">
                                            <SimplePredicate field="age" operator="greaterThan" value="18.5"/>
                                            <Node id="17" recordCount="39.0">
                                                <SimplePredicate field="income" operator="lessOrEqual" value="178.67137908935547"/>
                                                <Node id="18" score="0" recordCount="17.0">
                                                    <SimplePredicate field="response" operator="lessOrEqual" value="0.5"/>
                                                    <ScoreDistribution value="0" recordCount="17.0" confidence="1.0"/>
                                                    <ScoreDistribution value="1" recordCount="0.0" confidence="0.0"/>
                                                    <ScoreDistribution value="2" recordCount="0.0" confidence="0.0"/>
                                                </Node>
                                                <Node id="19" score="1" recordCount="22.0">
                                                    <SimplePredicate field="response" operator="greaterThan" value="0.5"/>
                                                    <ScoreDistribution value="0" recordCount="0.0" confidence="0.0"/>
                                                    <ScoreDistribution value="1" recordCount="22.0" confidence="1.0"/>
                                                    <ScoreDistribution value="2" recordCount="0.0" confidence="0.0"/>
                                                </Node>
                                            </Node>
                                            <Node id="20" recordCount="6.0">
                                                <SimplePredicate field="income" operator="greaterThan" value="178.67137908935547"/>
                                                <Node id="21" score="1" recordCount="3.0">
                                                    <SimplePredicate field="response" operator="lessOrEqual" value="0.5"/>
                                                    <ScoreDistribution value="0" recordCount="0.0" confidence="0.0"/>
                                                    <ScoreDistribution value="1" recordCount="3.0" confidence="1.0"/>
                                                    <ScoreDistribution value="2" recordCount="0.0" confidence="0.0"/>
                                                </Node>
                                                <Node id="22" score="1" recordCount="3.0">
                                                    <SimplePredicate field="response" operator="greaterThan" value="0.5"/>
                                                    <ScoreDistribution value="0" recordCount="0.0" confidence="0.0"/>
                                                    <ScoreDistribution value="1" recordCount="2.0" confidence="0.6666666666666666"/>
                                                    <ScoreDistribution value="2" recordCount="1.0" confidence="0.3333333333333333"/>
                                                </Node>
                                            </Node>
                                        </Node>
                                    </Node>
                                    <Node id="23" recordCount="359.0">
                                        <SimplePredicate field="age" operator="greaterThan" value="19.5"/>
                                        <Node id="24" recordCount="191.0">
                                            <SimplePredicate field="response" operator="lessOrEqual" value="0.5"/>
                                            <Node id="25" score="0" recordCount="174.0">
                                                <SimplePredicate field="income" operator="lessOrEqual" value="196.58306121826172"/>
                                                <ScoreDistribution value="0" recordCount="174.0" confidence="1.0"/>
                                                <ScoreDistribution value="1" recordCount="0.0" confidence="0.0"/>
                                                <ScoreDistribution value="2" recordCount="0.0" confidence="0.0"/>
                                            </Node>
                                            <Node id="26" score="1" recordCount="17.0">
                                                <SimplePredicate field="income" operator="greaterThan" value="196.58306121826172"/>
                                                <ScoreDistribution value="0" recordCount="0.0" confidence="0.0"/>
                                                <ScoreDistribution value="1" recordCount="17.0" confidence="1.0"/>
                                                <ScoreDistribution value="2" recordCount="0.0" confidence="0.0"/>
                                            </Node>
                                        </Node>
                                        <Node id="27" recordCount="168.0">
                                            <SimplePredicate field="response" operator="greaterThan" value="0.5"/>
                                            <Node id="28" recordCount="31.0">
                                                <SimplePredicate field="age" operator="lessOrEqual" value="21.5"/>
                                                <Node id="29" score="1" recordCount="15.0">
                                                    <SimplePredicate field="age" operator="lessOrEqual" value="20.5"/>
                                                    <ScoreDistribution value="0" recordCount="0.0" confidence="0.0"/>
                                                    <ScoreDistribution value="1" recordCount="15.0" confidence="1.0"/>
                                                    <ScoreDistribution value="2" recordCount="0.0" confidence="0.0"/>
                                                </Node>
                                                <Node id="30" recordCount="16.0">
                                                    <SimplePredicate field="age" operator="greaterThan" value="20.5"/>
                                                    <Node id="31" score="1" recordCount="14.0">
                                                        <SimplePredicate field="income" operator="lessOrEqual" value="147.17465209960938"/>
                                                        <ScoreDistribution value="0" recordCount="0.0" confidence="0.0"/>
                                                        <ScoreDistribution value="1" recordCount="14.0" confidence="1.0"/>
                                                        <ScoreDistribution value="2" recordCount="0.0" confidence="0.0"/>
                                                    </Node>
                                                    <Node id="32" score="1" recordCount="2.0">
                                                        <SimplePredicate field="income" operator="greaterThan" value="147.17465209960938"/>
                                                        <ScoreDistribution value="0" recordCount="0.0" confidence="0.0"/>
                                                        <ScoreDistribution value="1" recordCount="1.0" confidence="0.5"/>
                                                        <ScoreDistribution value="2" recordCount="1.0" confidence="0.5"/>
                                                    </Node>
                                                </Node>
                                            </Node>
                                            <Node id="33" recordCount="137.0">
                                                <SimplePredicate field="age" operator="greaterThan" value="21.5"/>
                                                <Node id="34" score="1" recordCount="121.0">
                                                    <SimplePredicate field="income" operator="lessOrEqual" value="200.2956085205078"/>
                                                    <ScoreDistribution value="0" recordCount="0.0" confidence="0.0"/>
                                                    <ScoreDistribution value="1" recordCount="121.0" confidence="1.0"/>
                                                    <ScoreDistribution value="2" recordCount="0.0" confidence="0.0"/>
                                                </Node>
                                                <Node id="35" score="2" recordCount="16.0">
                                                    <SimplePredicate field="income" operator="greaterThan" value="200.2956085205078"/>
                                                    <ScoreDistribution value="0" recordCount="0.0" confidence="0.0"/>
                                                    <ScoreDistribution value="1" recordCount="0.0" confidence="0.0"/>
                                                    <ScoreDistribution value="2" recordCount="16.0" confidence="1.0"/>
                                                </Node>
                                            </Node>
                                        </Node>
                                    </Node>
                                </Node>
                                <Node id="36" recordCount="206.0">
                                    <SimplePredicate field="age" operator="greaterThan" value="26.5"/>
                                    <Node id="37" recordCount="182.0">
                                        <SimplePredicate field="income" operator="lessOrEqual" value="189.26148986816406"/>
                                        <Node id="38" recordCount="47.0">
                                            <SimplePredicate field="income" operator="lessOrEqual" value="46.62986755371094"/>
                                            <Node id="39" score="0" recordCount="16.0">
                                                <SimplePredicate field="response" operator="lessOrEqual" value="0.5"/>
                                                <ScoreDistribution value="0" recordCount="16.0" confidence="1.0"/>
                                                <ScoreDistribution value="1" recordCount="0.0" confidence="0.0"/>
                                                <ScoreDistribution value="2" recordCount="0.0" confidence="0.0"/>
                                            </Node>
                                            <Node id="40" score="1" recordCount="31.0">
                                                <SimplePredicate field="response" operator="greaterThan" value="0.5"/>
                                                <ScoreDistribution value="0" recordCount="0.0" confidence="0.0"/>
                                                <ScoreDistribution value="1" recordCount="31.0" confidence="1.0"/>
                                                <ScoreDistribution value="2" recordCount="0.0" confidence="0.0"/>
                                            </Node>
                                        </Node>
                                        <Node id="41" recordCount="135.0">
                                            <SimplePredicate field="income" operator="greaterThan" value="46.62986755371094"/>
                                            <Node id="42" recordCount="57.0">
                                                <SimplePredicate field="income" operator="lessOrEqual" value="94.18819427490234"/>
                                                <Node id="43" recordCount="11.0">
                                                    <SimplePredicate field="age" operator="lessOrEqual" value="27.5"/>
                                                    <Node id="44" score="0" recordCount="2.0">
                                                        <SimplePredicate field="income" operator="lessOrEqual" value="56.34728240966797"/>
                                                        <ScoreDistribution value="0" recordCount="2.0" confidence="1.0"/>
                                                        <ScoreDistribution value="1" recordCount="0.0" confidence="0.0"/>
                                                        <ScoreDistribution value="2" recordCount="0.0" confidence="0.0"/>
                                                    </Node>
                                                    <Node id="45" recordCount="9.0">
                                                        <SimplePredicate field="income" operator="greaterThan" value="56.34728240966797"/>
                                                        <Node id="46" recordCount="6.0">
                                                            <SimplePredicate field="income" operator="lessOrEqual" value="77.0607681274414"/>
                                                            <Node id="47" score="0" recordCount="2.0">
                                                                <SimplePredicate field="response" operator="lessOrEqual" value="0.5"/>
                                                                <ScoreDistribution value="0" recordCount="2.0" confidence="1.0"/>
                                                                <ScoreDistribution value="1" recordCount="0.0" confidence="0.0"/>
                                                                <ScoreDistribution value="2" recordCount="0.0" confidence="0.0"/>
                                                            </Node>
                                                            <Node id="48" score="1" recordCount="4.0">
                                                                <SimplePredicate field="response" operator="greaterThan" value="0.5"/>
                                                                <ScoreDistribution value="0" recordCount="0.0" confidence="0.0"/>
                                                                <ScoreDistribution value="1" recordCount="4.0" confidence="1.0"/>
                                                                <ScoreDistribution value="2" recordCount="0.0" confidence="0.0"/>
                                                            </Node>
                                                        </Node>
                                                        <Node id="49" score="1" recordCount="3.0">
                                                            <SimplePredicate field="income" operator="greaterThan" value="77.0607681274414"/>
                                                            <ScoreDistribution value="0" recordCount="0.0" confidence="0.0"/>
                                                            <ScoreDistribution value="1" recordCount="3.0" confidence="1.0"/>
                                                            <ScoreDistribution value="2" recordCount="0.0" confidence="0.0"/>
                                                        </Node>
                                                    </Node>
                                                </Node>
                                                <Node id="50" recordCount="46.0">
                                                    <SimplePredicate field="age" operator="greaterThan" value="27.5"/>
                                                    <Node id="51" score="0" recordCount="32.0">
                                                        <SimplePredicate field="response" operator="lessOrEqual" value="0.5"/>
                                                        <ScoreDistribution value="0" recordCount="32.0" confidence="1.0"/>
                                                        <ScoreDistribution value="1" recordCount="0.0" confidence="0.0"/>
                                                        <ScoreDistribution value="2" recordCount="0.0" confidence="0.0"/>
                                                    </Node>
                                                    <Node id="52" score="1" recordCount="14.0">
                                                        <SimplePredicate field="response" operator="greaterThan" value="0.5"/>
                                                        <ScoreDistribution value="0" recordCount="0.0" confidence="0.0"/>
                                                        <ScoreDistribution value="1" recordCount="14.0" confidence="1.0"/>
                                                        <ScoreDistribution value="2" recordCount="0.0" confidence="0.0"/>
                                                    </Node>
                                                </Node>
                                            </Node>
                                            <Node id="53" recordCount="78.0">
                                                <SimplePredicate field="income" operator="greaterThan" value="94.18819427490234"/>
                                                <Node id="54" recordCount="40.0">
                                                    <SimplePredicate field="response" operator="lessOrEqual" value="0.5"/>
                                                    <Node id="55" score="0" recordCount="29.0">
                                                        <SimplePredicate field="income" operator="lessOrEqual" value="148.8490219116211"/>
                                                        <ScoreDistribution value="0" recordCount="29.0" confidence="1.0"/>
                                                        <ScoreDistribution value="1" recordCount="0.0" confidence="0.0"/>
                                                        <ScoreDistribution value="2" recordCount="0.0" confidence="0.0"/>
                                                    </Node>
                                                    <Node id="56" recordCount="11.0">
                                                        <SimplePredicate field="income" operator="greaterThan" value="148.8490219116211"/>
                                                        <Node id="57" recordCount="4.0">
                                                            <SimplePredicate field="income" operator="lessOrEqual" value="161.03838348388672"/>
                                                            <Node id="58" score="0" recordCount="2.0">
                                                                <SimplePredicate field="income" operator="lessOrEqual" value="155.44481658935547"/>
                                                                <ScoreDistribution value="0" recordCount="1.0" confidence="0.5"/>
                                                                <ScoreDistribution value="1" recordCount="1.0" confidence="0.5"/>
                                                                <ScoreDistribution value="2" recordCount="0.0" confidence="0.0"/>
                                                            </Node>
                                                            <Node id="59" score="1" recordCount="2.0">
                                                                <SimplePredicate field="income" operator="greaterThan" value="155.44481658935547"/>
                                                                <ScoreDistribution value="0" recordCount="0.0" confidence="0.0"/>
                                                                <ScoreDistribution value="1" recordCount="2.0" confidence="1.0"/>
                                                                <ScoreDistribution value="2" recordCount="0.0" confidence="0.0"/>
                                                            </Node>
                                                        </Node>
                                                        <Node id="60" recordCount="7.0">
                                                            <SimplePredicate field="income" operator="greaterThan" value="161.03838348388672"/>
                                                            <Node id="61" score="0" recordCount="3.0">
                                                                <SimplePredicate field="income" operator="lessOrEqual" value="172.1050033569336"/>
                                                                <ScoreDistribution value="0" recordCount="3.0" confidence="1.0"/>
                                                                <ScoreDistribution value="1" recordCount="0.0" confidence="0.0"/>
                                                                <ScoreDistribution value="2" recordCount="0.0" confidence="0.0"/>
                                                            </Node>
                                                            <Node id="62" recordCount="4.0">
                                                                <SimplePredicate field="income" operator="greaterThan" value="172.1050033569336"/>
                                                                <Node id="63" score="0" recordCount="2.0">
                                                                    <SimplePredicate field="income" operator="lessOrEqual" value="181.61479949951172"/>
                                                                    <ScoreDistribution value="0" recordCount="1.0" confidence="0.5"/>
                                                                    <ScoreDistribution value="1" recordCount="1.0" confidence="0.5"/>
                                                                    <ScoreDistribution value="2" recordCount="0.0" confidence="0.0"/>
                                                                </Node>
                                                                <Node id="64" score="0" recordCount="2.0">
                                                                    <SimplePredicate field="income" operator="greaterThan" value="181.61479949951172"/>
                                                                    <ScoreDistribution value="0" recordCount="1.0" confidence="0.5"/>
                                                                    <ScoreDistribution value="1" recordCount="1.0" confidence="0.5"/>
                                                                    <ScoreDistribution value="2" recordCount="0.0" confidence="0.0"/>
                                                                </Node>
                                                            </Node>
                                                        </Node>
                                                    </Node>
                                                </Node>
                                                <Node id="65" recordCount="38.0">
                                                    <SimplePredicate field="response" operator="greaterThan" value="0.5"/>
                                                    <Node id="66" score="1" recordCount="29.0">
                                                        <SimplePredicate field="income" operator="lessOrEqual" value="147.4987030029297"/>
                                                        <ScoreDistribution value="0" recordCount="0.0" confidence="0.0"/>
                                                        <ScoreDistribution value="1" recordCount="29.0" confidence="1.0"/>
                                                        <ScoreDistribution value="2" recordCount="0.0" confidence="0.0"/>
                                                    </Node>
                                                    <Node id="67" recordCount="9.0">
                                                        <SimplePredicate field="income" operator="greaterThan" value="147.4987030029297"/>
                                                        <Node id="68" recordCount="4.0">
                                                            <SimplePredicate field="income" operator="lessOrEqual" value="159.4726333618164"/>
                                                            <Node id="69" score="1" recordCount="2.0">
                                                                <SimplePredicate field="age" operator="lessOrEqual" value="29.5"/>
                                                                <ScoreDistribution value="0" recordCount="0.0" confidence="0.0"/>
                                                                <ScoreDistribution value="1" recordCount="2.0" confidence="1.0"/>
                                                                <ScoreDistribution value="2" recordCount="0.0" confidence="0.0"/>
                                                            </Node>
                                                            <Node id="70" score="2" recordCount="2.0">
                                                                <SimplePredicate field="age" operator="greaterThan" value="29.5"/>
                                                                <ScoreDistribution value="0" recordCount="0.0" confidence="0.0"/>
                                                                <ScoreDistribution value="1" recordCount="0.0" confidence="0.0"/>
                                                                <ScoreDistribution value="2" recordCount="2.0" confidence="1.0"/>
                                                            </Node>
                                                        </Node>
                                                        <Node id="71" recordCount="5.0">
                                                            <SimplePredicate field="income" operator="greaterThan" value="159.4726333618164"/>
                                                            <Node id="72" score="1" recordCount="3.0">
                                                                <SimplePredicate field="income" operator="lessOrEqual" value="171.65689849853516"/>
                                                                <ScoreDistribution value="0" recordCount="0.0" confidence="0.0"/>
                                                                <ScoreDistribution value="1" recordCount="3.0" confidence="1.0"/>
                                                                <ScoreDistribution value="2" recordCount="0.0" confidence="0.0"/>
                                                            </Node>
                                                            <Node id="73" score="1" recordCount="2.0">
                                                                <SimplePredicate field="income" operator="greaterThan" value="171.65689849853516"/>
                                                                <ScoreDistribution value="0" recordCount="0.0" confidence="0.0"/>
                                                                <ScoreDistribution value="1" recordCount="1.0" confidence="0.5"/>
                                                                <ScoreDistribution value="2" recordCount="1.0" confidence="0.5"/>
                                                            </Node>
                                                        </Node>
                                                    </Node>
                                                </Node>
                                            </Node>
                                        </Node>
                                    </Node>
                                    <Node id="74" recordCount="24.0">
                                        <SimplePredicate field="income" operator="greaterThan" value="189.26148986816406"/>
                                        <Node id="75" score="1" recordCount="4.0">
                                            <SimplePredicate field="response" operator="lessOrEqual" value="0.5"/>
                                            <ScoreDistribution value="0" recordCount="0.0" confidence="0.0"/>
                                            <ScoreDistribution value="1" recordCount="4.0" confidence="1.0"/>
                                            <ScoreDistribution value="2" recordCount="0.0" confidence="0.0"/>
                                        </Node>
                                        <Node id="76" recordCount="20.0">
                                            <SimplePredicate field="response" operator="greaterThan" value="0.5"/>
                                            <Node id="77" recordCount="4.0">
                                                <SimplePredicate field="income" operator="lessOrEqual" value="205.3230438232422"/>
                                                <Node id="78" score="1" recordCount="2.0">
                                                    <SimplePredicate field="age" operator="lessOrEqual" value="29.5"/>
                                                    <ScoreDistribution value="0" recordCount="0.0" confidence="0.0"/>
                                                    <ScoreDistribution value="1" recordCount="2.0" confidence="1.0"/>
                                                    <ScoreDistribution value="2" recordCount="0.0" confidence="0.0"/>
                                                </Node>
                                                <Node id="79" score="2" recordCount="2.0">
                                                    <SimplePredicate field="age" operator="greaterThan" value="29.5"/>
                                                    <ScoreDistribution value="0" recordCount="0.0" confidence="0.0"/>
                                                    <ScoreDistribution value="1" recordCount="0.0" confidence="0.0"/>
                                                    <ScoreDistribution value="2" recordCount="2.0" confidence="1.0"/>
                                                </Node>
                                            </Node>
                                            <Node id="80" score="2" recordCount="16.0">
                                                <SimplePredicate field="income" operator="greaterThan" value="205.3230438232422"/>
                                                <ScoreDistribution value="0" recordCount="0.0" confidence="0.0"/>
                                                <ScoreDistribution value="1" recordCount="0.0" confidence="0.0"/>
                                                <ScoreDistribution value="2" recordCount="16.0" confidence="1.0"/>
                                            </Node>
                                        </Node>
                                    </Node>
                                </Node>
                            </Node>
                            <Node id="81" recordCount="46.0">
                                <SimplePredicate field="age" operator="greaterThan" value="30.5"/>
                                <Node id="82" recordCount="37.0">
                                    <SimplePredicate field="income" operator="lessOrEqual" value="145.11202239990234"/>
                                    <Node id="83" recordCount="24.0">
                                        <SimplePredicate field="income" operator="lessOrEqual" value="90.50345993041992"/>
                                        <Node id="84" score="0" recordCount="5.0">
                                            <SimplePredicate field="income" operator="lessOrEqual" value="43.06984519958496"/>
                                            <ScoreDistribution value="0" recordCount="4.0" confidence="0.8"/>
                                            <ScoreDistribution value="1" recordCount="1.0" confidence="0.2"/>
                                            <ScoreDistribution value="2" recordCount="0.0" confidence="0.0"/>
                                        </Node>
                                        <Node id="85" recordCount="19.0">
                                            <SimplePredicate field="income" operator="greaterThan" value="43.06984519958496"/>
                                            <Node id="86" score="1" recordCount="3.0">
                                                <SimplePredicate field="income" operator="lessOrEqual" value="47.35231018066406"/>
                                                <ScoreDistribution value="0" recordCount="0.0" confidence="0.0"/>
                                                <ScoreDistribution value="1" recordCount="3.0" confidence="1.0"/>
                                                <ScoreDistribution value="2" recordCount="0.0" confidence="0.0"/>
                                            </Node>
                                            <Node id="87" recordCount="16.0">
                                                <SimplePredicate field="income" operator="greaterThan" value="47.35231018066406"/>
                                                <Node id="88" score="0" recordCount="2.0">
                                                    <SimplePredicate field="income" operator="lessOrEqual" value="51.01369285583496"/>
                                                    <ScoreDistribution value="0" recordCount="2.0" confidence="1.0"/>
                                                    <ScoreDistribution value="1" recordCount="0.0" confidence="0.0"/>
                                                    <ScoreDistribution value="2" recordCount="0.0" confidence="0.0"/>
                                                </Node>
                                                <Node id="89" recordCount="14.0">
                                                    <SimplePredicate field="income" operator="greaterThan" value="51.01369285583496"/>
                                                    <Node id="90" score="1" recordCount="2.0">
                                                        <SimplePredicate field="income" operator="lessOrEqual" value="52.550514221191406"/>
                                                        <ScoreDistribution value="0" recordCount="0.0" confidence="0.0"/>
                                                        <ScoreDistribution value="1" recordCount="2.0" confidence="1.0"/>
                                                        <ScoreDistribution value="2" recordCount="0.0" confidence="0.0"/>
                                                    </Node>
                                                    <Node id="91" recordCount="12.0">
                                                        <SimplePredicate field="income" operator="greaterThan" value="52.550514221191406"/>
                                                        <Node id="92" score="0" recordCount="7.0">
                                                            <SimplePredicate field="response" operator="lessOrEqual" value="0.5"/>
                                                            <ScoreDistribution value="0" recordCount="7.0" confidence="1.0"/>
                                                            <ScoreDistribution value="1" recordCount="0.0" confidence="0.0"/>
                                                            <ScoreDistribution value="2" recordCount="0.0" confidence="0.0"/>
                                                        </Node>
                                                        <Node id="93" score="1" recordCount="5.0">
                                                            <SimplePredicate field="response" operator="greaterThan" value="0.5"/>
                                                            <ScoreDistribution value="0" recordCount="0.0" confidence="0.0"/>
                                                            <ScoreDistribution value="1" recordCount="5.0" confidence="1.0"/>
                                                            <ScoreDistribution value="2" recordCount="0.0" confidence="0.0"/>
                                                        </Node>
                                                    </Node>
                                                </Node>
                                            </Node>
                                        </Node>
                                    </Node>
                                    <Node id="94" recordCount="13.0">
                                        <SimplePredicate field="income" operator="greaterThan" value="90.50345993041992"/>
                                        <Node id="95" score="0" recordCount="11.0">
                                            <SimplePredicate field="response" operator="lessOrEqual" value="0.5"/>
                                            <ScoreDistribution value="0" recordCount="11.0" confidence="1.0"/>
                                            <ScoreDistribution value="1" recordCount="0.0" confidence="0.0"/>
                                            <ScoreDistribution value="2" recordCount="0.0" confidence="0.0"/>
                                        </Node>
                                        <Node id="96" score="1" recordCount="2.0">
                                            <SimplePredicate field="response" operator="greaterThan" value="0.5"/>
                                            <ScoreDistribution value="0" recordCount="0.0" confidence="0.0"/>
                                            <ScoreDistribution value="1" recordCount="2.0" confidence="1.0"/>
                                            <ScoreDistribution value="2" recordCount="0.0" confidence="0.0"/>
                                        </Node>
                                    </Node>
                                </Node>
                                <Node id="97" recordCount="9.0">
                                    <SimplePredicate field="income" operator="greaterThan" value="145.11202239990234"/>
                                    <Node id="98" score="1" recordCount="3.0">
                                        <SimplePredicate field="response" operator="lessOrEqual" value="0.5"/>
                                        <ScoreDistribution value="0" recordCount="0.0" confidence="0.0"/>
                                        <ScoreDistribution value="1" recordCount="3.0" confidence="1.0"/>
                                        <ScoreDistribution value="2" recordCount="0.0" confidence="0.0"/>
                                    </Node>
                                    <Node id="99" recordCount="6.0">
                                        <SimplePredicate field="response" operator="greaterThan" value="0.5"/>
                                        <Node id="100" score="1" recordCount="2.0">
                                            <SimplePredicate field="income" operator="lessOrEqual" value="164.97440338134766"/>
                                            <ScoreDistribution value="0" recordCount="0.0" confidence="0.0"/>
                                            <ScoreDistribution value="1" recordCount="1.0" confidence="0.5"/>
                                            <ScoreDistribution value="2" recordCount="1.0" confidence="0.5"/>
                                        </Node>
                                        <Node id="101" score="2" recordCount="4.0">
                                            <SimplePredicate field="income" operator="greaterThan" value="164.97440338134766"/>
                                            <ScoreDistribution value="0" recordCount="0.0" confidence="0.0"/>
                                            <ScoreDistribution value="1" recordCount="0.0" confidence="0.0"/>
                                            <ScoreDistribution value="2" recordCount="4.0" confidence="1.0"/>
                                        </Node>
                                    </Node>
                                </Node>
                            </Node>
                        </Node>
                        <Node id="102" recordCount="2166.0">
                            <SimplePredicate field="age" operator="greaterThan" value="31.5"/>
                            <Node id="103" recordCount="1353.0">
                                <SimplePredicate field="response" operator="lessOrEqual" value="0.5"/>
                                <Node id="104" recordCount="461.0">
                                    <SimplePredicate field="age" operator="lessOrEqual" value="49.5"/>
                                    <Node id="105" score="0" recordCount="333.0">
                                        <SimplePredicate field="income" operator="lessOrEqual" value="149.97196197509766"/>
                                        <ScoreDistribution value="0" recordCount="333.0" confidence="1.0"/>
                                        <ScoreDistribution value="1" recordCount="0.0" confidence="0.0"/>
                                        <ScoreDistribution value="2" recordCount="0.0" confidence="0.0"/>
                                    </Node>
                                    <Node id="106" score="1" recordCount="128.0">
                                        <SimplePredicate field="income" operator="greaterThan" value="149.97196197509766"/>
                                        <ScoreDistribution value="0" recordCount="0.0" confidence="0.0"/>
                                        <ScoreDistribution value="1" recordCount="128.0" confidence="1.0"/>
                                        <ScoreDistribution value="2" recordCount="0.0" confidence="0.0"/>
                                    </Node>
                                </Node>
                                <Node id="107" recordCount="892.0">
                                    <SimplePredicate field="age" operator="greaterThan" value="49.5"/>
                                    <Node id="108" recordCount="539.0">
                                        <SimplePredicate field="income" operator="lessOrEqual" value="149.91809844970703"/>
                                        <Node id="109" recordCount="89.0">
                                            <SimplePredicate field="income" operator="lessOrEqual" value="76.4382438659668"/>
                                            <Node id="110" recordCount="6.0">
                                                <SimplePredicate field="age" operator="lessOrEqual" value="50.5"/>
                                                <Node id="111" score="0" recordCount="4.0">
                                                    <SimplePredicate field="income" operator="lessOrEqual" value="64.14021110534668"/>
                                                    <ScoreDistribution value="0" recordCount="4.0" confidence="1.0"/>
                                                    <ScoreDistribution value="1" recordCount="0.0" confidence="0.0"/>
                                                    <ScoreDistribution value="2" recordCount="0.0" confidence="0.0"/>
                                                </Node>
                                                <Node id="112" score="0" recordCount="2.0">
                                                    <SimplePredicate field="income" operator="greaterThan" value="64.14021110534668"/>
                                                    <ScoreDistribution value="0" recordCount="1.0" confidence="0.5"/>
                                                    <ScoreDistribution value="1" recordCount="1.0" confidence="0.5"/>
                                                    <ScoreDistribution value="2" recordCount="0.0" confidence="0.0"/>
                                                </Node>
                                            </Node>
                                            <Node id="113" score="0" recordCount="83.0">
                                                <SimplePredicate field="age" operator="greaterThan" value="50.5"/>
                                                <ScoreDistribution value="0" recordCount="83.0" confidence="1.0"/>
                                                <ScoreDistribution value="1" recordCount="0.0" confidence="0.0"/>
                                                <ScoreDistribution value="2" recordCount="0.0" confidence="0.0"/>
                                            </Node>
                                        </Node>
                                        <Node id="114" recordCount="450.0">
                                            <SimplePredicate field="income" operator="greaterThan" value="76.4382438659668"/>
                                            <Node id="115" recordCount="76.0">
                                                <SimplePredicate field="income" operator="lessOrEqual" value="87.57922744750977"/>
                                                <Node id="116" score="1" recordCount="19.0">
                                                    <SimplePredicate field="age" operator="lessOrEqual" value="59.5"/>
                                                    <ScoreDistribution value="0" recordCount="0.0" confidence="0.0"/>
                                                    <ScoreDistribution value="1" recordCount="19.0" confidence="1.0"/>
                                                    <ScoreDistribution value="2" recordCount="0.0" confidence="0.0"/>
                                                </Node>
                                                <Node id="117" score="0" recordCount="57.0">
                                                    <SimplePredicate field="age" operator="greaterThan" value="59.5"/>
                                                    <ScoreDistribution value="0" recordCount="57.0" confidence="1.0"/>
                                                    <ScoreDistribution value="1" recordCount="0.0" confidence="0.0"/>
                                                    <ScoreDistribution value="2" recordCount="0.0" confidence="0.0"/>
                                                </Node>
                                            </Node>
                                            <Node id="118" recordCount="374.0">
                                                <SimplePredicate field="income" operator="greaterThan" value="87.57922744750977"/>
                                                <Node id="119" score="1" recordCount="143.0">
                                                    <SimplePredicate field="age" operator="lessOrEqual" value="59.5"/>
                                                    <ScoreDistribution value="0" recordCount="0.0" confidence="0.0"/>
                                                    <ScoreDistribution value="1" recordCount="143.0" confidence="1.0"/>
                                                    <ScoreDistribution value="2" recordCount="0.0" confidence="0.0"/>
                                                </Node>
                                                <Node id="120" score="0" recordCount="231.0">
                                                    <SimplePredicate field="age" operator="greaterThan" value="59.5"/>
                                                    <ScoreDistribution value="0" recordCount="231.0" confidence="1.0"/>
                                                    <ScoreDistribution value="1" recordCount="0.0" confidence="0.0"/>
                                                    <ScoreDistribution value="2" recordCount="0.0" confidence="0.0"/>
                                                </Node>
                                            </Node>
                                        </Node>
                                    </Node>
                                    <Node id="121" score="1" recordCount="353.0">
                                        <SimplePredicate field="income" operator="greaterThan" value="149.91809844970703"/>
                                        <ScoreDistribution value="0" recordCount="0.0" confidence="0.0"/>
                                        <ScoreDistribution value="1" recordCount="353.0" confidence="1.0"/>
                                        <ScoreDistribution value="2" recordCount="0.0" confidence="0.0"/>
                                    </Node>
                                </Node>
                            </Node>
                            <Node id="122" recordCount="813.0">
                                <SimplePredicate field="response" operator="greaterThan" value="0.5"/>
                                <Node id="123" recordCount="465.0">
                                    <SimplePredicate field="age" operator="lessOrEqual" value="49.5"/>
                                    <Node id="124" score="1" recordCount="334.0">
                                        <SimplePredicate field="income" operator="lessOrEqual" value="149.58748626708984"/>
                                        <ScoreDistribution value="0" recordCount="0.0" confidence="0.0"/>
                                        <ScoreDistribution value="1" recordCount="334.0" confidence="1.0"/>
                                        <ScoreDistribution value="2" recordCount="0.0" confidence="0.0"/>
                                    </Node>
                                    <Node id="125" score="2" recordCount="131.0">
                                        <SimplePredicate field="income" operator="greaterThan" value="149.58748626708984"/>
                                        <ScoreDistribution value="0" recordCount="0.0" confidence="0.0"/>
                                        <ScoreDistribution value="1" recordCount="0.0" confidence="0.0"/>
                                        <ScoreDistribution value="2" recordCount="131.0" confidence="1.0"/>
                                    </Node>
                                </Node>
                                <Node id="126" recordCount="348.0">
                                    <SimplePredicate field="age" operator="greaterThan" value="49.5"/>
                                    <Node id="127" recordCount="135.0">
                                        <SimplePredicate field="age" operator="lessOrEqual" value="59.5"/>
                                        <Node id="128" score="1" recordCount="27.0">
                                            <SimplePredicate field="income" operator="lessOrEqual" value="75.54623413085938"/>
                                            <ScoreDistribution value="0" recordCount="0.0" confidence="0.0"/>
                                            <ScoreDistribution value="1" recordCount="27.0" confidence="1.0"/>
                                            <ScoreDistribution value="2" recordCount="0.0" confidence="0.0"/>
                                        </Node>
                                        <Node id="129" score="2" recordCount="108.0">
                                            <SimplePredicate field="income" operator="greaterThan" value="75.54623413085938"/>
                                            <ScoreDistribution value="0" recordCount="0.0" confidence="0.0"/>
                                            <ScoreDistribution value="1" recordCount="0.0" confidence="0.0"/>
                                            <ScoreDistribution value="2" recordCount="108.0" confidence="1.0"/>
                                        </Node>
                                    </Node>
                                    <Node id="130" recordCount="213.0">
                                        <SimplePredicate field="age" operator="greaterThan" value="59.5"/>
                                        <Node id="131" score="1" recordCount="134.0">
                                            <SimplePredicate field="income" operator="lessOrEqual" value="149.22142791748047"/>
                                            <ScoreDistribution value="0" recordCount="0.0" confidence="0.0"/>
                                            <ScoreDistribution value="1" recordCount="134.0" confidence="1.0"/>
                                            <ScoreDistribution value="2" recordCount="0.0" confidence="0.0"/>
                                        </Node>
                                        <Node id="132" score="2" recordCount="79.0">
                                            <SimplePredicate field="income" operator="greaterThan" value="149.22142791748047"/>
                                            <ScoreDistribution value="0" recordCount="0.0" confidence="0.0"/>
                                            <ScoreDistribution value="1" recordCount="0.0" confidence="0.0"/>
                                            <ScoreDistribution value="2" recordCount="79.0" confidence="1.0"/>
                                        </Node>
                                    </Node>
                                </Node>
                            </Node>
                        </Node>
                    </Node>
                </TreeModel>
            </Segment>
            <Segment id="1" weight="1">
                <True/>
                <TreeModel modelName="DecisionTreeClassifier" functionName="classification" missingValuePenalty="1.0">
                    <MiningSchema>
                        <MiningField name="age" usageType="active"/>
                        <MiningField name="income" usageType="active"/>
                        <MiningField name="response" usageType="active"/>
                    </MiningSchema>
                    <Node id="0" recordCount="3000.0">
                        <True/>
                        <Node id="1" recordCount="834.0">
                            <SimplePredicate field="age" operator="lessOrEqual" value="31.5"/>
                            <Node id="2" recordCount="788.0">
                                <SimplePredicate field="age" operator="lessOrEqual" value="30.5"/>
                                <Node id="3" recordCount="705.0">
                                    <SimplePredicate field="income" operator="lessOrEqual" value="192.4441375732422"/>
                                    <Node id="4" recordCount="363.0">
                                        <SimplePredicate field="response" operator="lessOrEqual" value="0.5"/>
                                        <Node id="5" score="0" recordCount="312.0">
                                            <SimplePredicate field="income" operator="lessOrEqual" value="150.55304718017578"/>
                                            <ScoreDistribution value="0" recordCount="312.0" confidence="1.0"/>
                                            <ScoreDistribution value="1" recordCount="0.0" confidence="0.0"/>
                                            <ScoreDistribution value="2" recordCount="0.0" confidence="0.0"/>
                                        </Node>
                                        <Node id="6" recordCount="51.0">
                                            <SimplePredicate field="income" operator="greaterThan" value="150.55304718017578"/>
                                            <Node id="7" score="0" recordCount="2.0">
                                                <SimplePredicate field="income" operator="lessOrEqual" value="150.97789001464844"/>
                                                <ScoreDistribution value="0" recordCount="1.0" confidence="0.5"/>
                                                <ScoreDistribution value="1" recordCount="1.0" confidence="0.5"/>
                                                <ScoreDistribution value="2" recordCount="0.0" confidence="0.0"/>
                                            </Node>
                                            <Node id="8" recordCount="49.0">
                                                <SimplePredicate field="income" operator="greaterThan" value="150.97789001464844"/>
                                                <Node id="9" score="0" recordCount="45.0">
                                                    <SimplePredicate field="age" operator="lessOrEqual" value="29.5"/>
                                                    <ScoreDistribution value="0" recordCount="45.0" confidence="1.0"/>
                                                    <ScoreDistribution value="1" recordCount="0.0" confidence="0.0"/>
                                                    <ScoreDistribution value="2" recordCount="0.0" confidence="0.0"/>
                                                </Node>
                                                <Node id="10" score="1" recordCount="4.0">
                                                    <SimplePredicate field="age" operator="greaterThan" value="29.5"/>
                                                    <ScoreDistribution value="0" recordCount="0.0" confidence="0.0"/>
                                                    <ScoreDistribution value="1" recordCount="4.0" confidence="1.0"/>
                                                    <ScoreDistribution value="2" recordCount="0.0" confidence="0.0"/>
                                                </Node>
                                            </Node>
                                        </Node>
                                    </Node>
                                    <Node id="11" recordCount="342.0">
                                        <SimplePredicate field="response" operator="greaterThan" value="0.5"/>
                                        <Node id="12" score="1" recordCount="315.0">
                                            <SimplePredicate field="age" operator="lessOrEqual" value="29.5"/>
                                            <ScoreDistribution value="0" recordCount="0.0" confidence="0.0"/>
                                            <ScoreDistribution value="1" recordCount="315.0" confidence="1.0"/>
                                            <ScoreDistribution value="2" recordCount="0.0" confidence="0.0"/>
                                        </Node>
                                        <Node id="13" recordCount="27.0">
                                            <SimplePredicate field="age" operator="greaterThan" value="29.5"/>
                                            <Node id="14" score="1" recordCount="24.0">
                                                <SimplePredicate field="income" operator="lessOrEqual" value="137.7258758544922"/>
                                                <ScoreDistribution value="0" recordCount="0.0" confidence="0.0"/>
                                                <ScoreDistribution value="1" recordCount="24.0" confidence="1.0"/>
                                                <ScoreDistribution value="2" recordCount="0.0" confidence="0.0"/>
                                            </Node>
                                            <Node id="15" score="2" recordCount="3.0">
                                                <SimplePredicate field="income" operator="greaterThan" value="137.7258758544922"/>
                                                <ScoreDistribution value="0" recordCount="0.0" confidence="0.0"/>
                                                <ScoreDistribution value="1" recordCount="0.0" confidence="0.0"/>
                                                <ScoreDistribution value="2" recordCount="3.0" confidence="1.0"/>
                                            </Node>
                                        </Node>
                                    </Node>
                                </Node>
                                <Node id="16" recordCount="83.0">
                                    <SimplePredicate field="income" operator="greaterThan" value="192.4441375732422"/>
                                    <Node id="17" recordCount="21.0">
                                        <SimplePredicate field="income" operator="lessOrEqual" value="209.9645538330078"/>
                                        <Node id="18" recordCount="19.0">
                                            <SimplePredicate field="age" operator="lessOrEqual" value="29.5"/>
                                            <Node id="19" recordCount="8.0">
                                                <SimplePredicate field="income" operator="lessOrEqual" value="201.41160583496094"/>
                                                <Node id="20" recordCount="4.0">
                                                    <SimplePredicate field="income" operator="lessOrEqual" value="196.34400939941406"/>
                                                    <Node id="21" score="0" recordCount="2.0">
                                                        <SimplePredicate field="age" operator="lessOrEqual" value="21.5"/>
                                                        <ScoreDistribution value="0" recordCount="1.0" confidence="0.5"/>
                                                        <ScoreDistribution value="1" recordCount="1.0" confidence="0.5"/>
                                                        <ScoreDistribution value="2" recordCount="0.0" confidence="0.0"/>
                                                    </Node>
                                                    <Node id="22" score="1" recordCount="2.0">
                                                        <SimplePredicate field="age" operator="greaterThan" value="21.5"/>
                                                        <ScoreDistribution value="0" recordCount="0.0" confidence="0.0"/>
                                                        <ScoreDistribution value="1" recordCount="2.0" confidence="1.0"/>
                                                        <ScoreDistribution value="2" recordCount="0.0" confidence="0.0"/>
                                                    </Node>
                                                </Node>
                                                <Node id="23" score="1" recordCount="4.0">
                                                    <SimplePredicate field="income" operator="greaterThan" value="196.34400939941406"/>
                                                    <ScoreDistribution value="0" recordCount="0.0" confidence="0.0"/>
                                                    <ScoreDistribution value="1" recordCount="4.0" confidence="1.0"/>
                                                    <ScoreDistribution value="2" recordCount="0.0" confidence="0.0"/>
                                                </Node>
                                            </Node>
                                            <Node id="24" recordCount="11.0">
                                                <SimplePredicate field="income" operator="greaterThan" value="201.41160583496094"/>
                                                <Node id="25" score="1" recordCount="6.0">
                                                    <SimplePredicate field="response" operator="lessOrEqual" value="0.5"/>
                                                    <ScoreDistribution value="0" recordCount="0.0" confidence="0.0"/>
                                                    <ScoreDistribution value="1" recordCount="6.0" confidence="1.0"/>
                                                    <ScoreDistribution value="2" recordCount="0.0" confidence="0.0"/>
                                                </Node>
                                                <Node id="26" score="2" recordCount="5.0">
                                                    <SimplePredicate field="response" operator="greaterThan" value="0.5"/>
                                                    <ScoreDistribution value="0" recordCount="0.0" confidence="0.0"/>
                                                    <ScoreDistribution value="1" recordCount="0.0" confidence="0.0"/>
                                                    <ScoreDistribution value="2" recordCount="5.0" confidence="1.0"/>
                                                </Node>
                                            </Node>
                                        </Node>
                                        <Node id="27" score="2" recordCount="2.0">
                                            <SimplePredicate field="age" operator="greaterThan" value="29.5"/>
                                            <ScoreDistribution value="0" recordCount="0.0" confidence="0.0"/>
                                            <ScoreDistribution value="1" recordCount="0.0" confidence="0.0"/>
                                            <ScoreDistribution value="2" recordCount="2.0" confidence="1.0"/>
                                        </Node>
                                    </Node>
                                    <Node id="28" recordCount="62.0">
                                        <SimplePredicate field="income" operator="greaterThan" value="209.9645538330078"/>
                                        <Node id="29" recordCount="43.0">
                                            <SimplePredicate field="age" operator="lessOrEqual" value="26.5"/>
                                            <Node id="30" recordCount="32.0">
                                                <SimplePredicate field="age" operator="lessOrEqual" value="24.5"/>
                                                <Node id="31" recordCount="21.0">
                                                    <SimplePredicate field="income" operator="lessOrEqual" value="270.1859588623047"/>
                                                    <Node id="32" recordCount="18.0">
                                                        <SimplePredicate field="income" operator="lessOrEqual" value="266.3507385253906"/>
                                                        <Node id="33" recordCount="9.0">
                                                            <SimplePredicate field="income" operator="lessOrEqual" value="231.2919692993164"/>
                                                            <Node id="34" recordCount="4.0">
                                                                <SimplePredicate field="income" operator="lessOrEqual" value="219.99718475341797"/>
                                                                <Node id="35" score="1" recordCount="2.0">
                                                                    <SimplePredicate field="response" operator="lessOrEqual" value="0.5"/>
                                                                    <ScoreDistribution value="0" recordCount="0.0" confidence="0.0"/>
                                                                    <ScoreDistribution value="1" recordCount="2.0" confidence="1.0"/>
                                                                    <ScoreDistribution value="2" recordCount="0.0" confidence="0.0"/>
                                                                </Node>
                                                                <Node id="36" score="2" recordCount="2.0">
                                                                    <SimplePredicate field="response" operator="greaterThan" value="0.5"/>
                                                                    <ScoreDistribution value="0" recordCount="0.0" confidence="0.0"/>
                                                                    <ScoreDistribution value="1" recordCount="0.0" confidence="0.0"/>
                                                                    <ScoreDistribution value="2" recordCount="2.0" confidence="1.0"/>
                                                                </Node>
                                                            </Node>
                                                            <Node id="37" score="2" recordCount="5.0">
                                                                <SimplePredicate field="income" operator="greaterThan" value="219.99718475341797"/>
                                                                <ScoreDistribution value="0" recordCount="0.0" confidence="0.0"/>
                                                                <ScoreDistribution value="1" recordCount="0.0" confidence="0.0"/>
                                                                <ScoreDistribution value="2" recordCount="5.0" confidence="1.0"/>
                                                            </Node>
                                                        </Node>
                                                        <Node id="38" recordCount="9.0">
                                                            <SimplePredicate field="income" operator="greaterThan" value="231.2919692993164"/>
                                                            <Node id="39" score="1" recordCount="3.0">
                                                                <SimplePredicate field="age" operator="lessOrEqual" value="21.0"/>
                                                                <ScoreDistribution value="0" recordCount="0.0" confidence="0.0"/>
                                                                <ScoreDistribution value="1" recordCount="2.0" confidence="0.6666666666666666"/>
                                                                <ScoreDistribution value="2" recordCount="1.0" confidence="0.3333333333333333"/>
                                                            </Node>
                                                            <Node id="40" recordCount="6.0">
                                                                <SimplePredicate field="age" operator="greaterThan" value="21.0"/>
                                                                <Node id="41" score="2" recordCount="4.0">
                                                                    <SimplePredicate field="age" operator="lessOrEqual" value="23.5"/>
                                                                    <ScoreDistribution value="0" recordCount="0.0" confidence="0.0"/>
                                                                    <ScoreDistribution value="1" recordCount="1.0" confidence="0.25"/>
                                                                    <ScoreDistribution value="2" recordCount="3.0" confidence="0.75"/>
                                                                </Node>
                                                                <Node id="42" score="1" recordCount="2.0">
                                                                    <SimplePredicate field="age" operator="greaterThan" value="23.5"/>
                                                                    <ScoreDistribution value="0" recordCount="0.0" confidence="0.0"/>
                                                                    <ScoreDistribution value="1" recordCount="1.0" confidence="0.5"/>
                                                                    <ScoreDistribution value="2" recordCount="1.0" confidence="0.5"/>
                                                                </Node>
                                                            </Node>
                                                        </Node>
                                                    </Node>
                                                    <Node id="43" score="2" recordCount="3.0">
                                                        <SimplePredicate field="income" operator="greaterThan" value="266.3507385253906"/>
                                                        <ScoreDistribution value="0" recordCount="0.0" confidence="0.0"/>
                                                        <ScoreDistribution value="1" recordCount="0.0" confidence="0.0"/>
                                                        <ScoreDistribution value="2" recordCount="3.0" confidence="1.0"/>
                                                    </Node>
                                                </Node>
                                                <Node id="44" recordCount="11.0">
                                                    <SimplePredicate field="income" operator="greaterThan" value="270.1859588623047"/>
                                                    <Node id="45" score="1" recordCount="6.0">
                                                        <SimplePredicate field="response" operator="lessOrEqual" value="0.5"/>
                                                        <ScoreDistribution value="0" recordCount="0.0" confidence="0.0"/>
                                                        <ScoreDistribution value="1" recordCount="6.0" confidence="1.0"/>
                                                        <ScoreDistribution value="2" recordCount="0.0" confidence="0.0"/>
                                                    </Node>
                                                    <Node id="46" score="2" recordCount="5.0">
                                                        <SimplePredicate field="response" operator="greaterThan" value="0.5"/>
                                                        <ScoreDistribution value="0" recordCount="0.0" confidence="0.0"/>
                                                        <ScoreDistribution value="1" recordCount="0.0" confidence="0.0"/>
                                                        <ScoreDistribution value="2" recordCount="5.0" confidence="1.0"/>
                                                    </Node>
                                                </Node>
                                            </Node>
                                            <Node id="47" recordCount="11.0">
                                                <SimplePredicate field="age" operator="greaterThan" value="24.5"/>
                                                <Node id="48" recordCount="8.0">
                                                    <SimplePredicate field="income" operator="lessOrEqual" value="257.91463470458984"/>
                                                    <Node id="49" score="1" recordCount="3.0">
                                                        <SimplePredicate field="income" operator="lessOrEqual" value="228.8240966796875"/>
                                                        <ScoreDistribution value="0" recordCount="0.0" confidence="0.0"/>
                                                        <ScoreDistribution value="1" recordCount="2.0" confidence="0.6666666666666666"/>
                                                        <ScoreDistribution value="2" recordCount="1.0" confidence="0.3333333333333333"/>
                                                    </Node>
                                                    <Node id="50" score="1" recordCount="5.0">
                                                        <SimplePredicate field="income" operator="greaterThan" value="228.8240966796875"/>
                                                        <ScoreDistribution value="0" recordCount="0.0" confidence="0.0"/>
                                                        <ScoreDistribution value="1" recordCount="5.0" confidence="1.0"/>
                                                        <ScoreDistribution value="2" recordCount="0.0" confidence="0.0"/>
                                                    </Node>
                                                </Node>
                                                <Node id="51" score="2" recordCount="3.0">
                                                    <SimplePredicate field="income" operator="greaterThan" value="257.91463470458984"/>
                                                    <ScoreDistribution value="0" recordCount="0.0" confidence="0.0"/>
                                                    <ScoreDistribution value="1" recordCount="1.0" confidence="0.3333333333333333"/>
                                                    <ScoreDistribution value="2" recordCount="2.0" confidence="0.6666666666666666"/>
                                                </Node>
                                            </Node>
                                        </Node>
                                        <Node id="52" recordCount="19.0">
                                            <SimplePredicate field="age" operator="greaterThan" value="26.5"/>
                                            <Node id="53" score="1" recordCount="3.0">
                                                <SimplePredicate field="response" operator="lessOrEqual" value="0.5"/>
                                                <ScoreDistribution value="0" recordCount="0.0" confidence="0.0"/>
                                                <ScoreDistribution value="1" recordCount="3.0" confidence="1.0"/>
                                                <ScoreDistribution value="2" recordCount="0.0" confidence="0.0"/>
                                            </Node>
                                            <Node id="54" score="2" recordCount="16.0">
                                                <SimplePredicate field="response" operator="greaterThan" value="0.5"/>
                                                <ScoreDistribution value="0" recordCount="0.0" confidence="0.0"/>
                                                <ScoreDistribution value="1" recordCount="0.0" confidence="0.0"/>
                                                <ScoreDistribution value="2" recordCount="16.0" confidence="1.0"/>
                                            </Node>
                                        </Node>
                                    </Node>
                                </Node>
                            </Node>
                            <Node id="55" recordCount="46.0">
                                <SimplePredicate field="age" operator="greaterThan" value="30.5"/>
                                <Node id="56" recordCount="37.0">
                                    <SimplePredicate field="income" operator="lessOrEqual" value="145.11202239990234"/>
                                    <Node id="57" recordCount="24.0">
                                        <SimplePredicate field="income" operator="lessOrEqual" value="90.50345993041992"/>
                                        <Node id="58" score="0" recordCount="13.0">
                                            <SimplePredicate field="response" operator="lessOrEqual" value="0.5"/>
                                            <ScoreDistribution value="0" recordCount="13.0" confidence="1.0"/>
                                            <ScoreDistribution value="1" recordCount="0.0" confidence="0.0"/>
                                            <ScoreDistribution value="2" recordCount="0.0" confidence="0.0"/>
                                        </Node>
                                        <Node id="59" score="1" recordCount="11.0">
                                            <SimplePredicate field="response" operator="greaterThan" value="0.5"/>
                                            <ScoreDistribution value="0" recordCount="0.0" confidence="0.0"/>
                                            <ScoreDistribution value="1" recordCount="11.0" confidence="1.0"/>
                                            <ScoreDistribution value="2" recordCount="0.0" confidence="0.0"/>
                                        </Node>
                                    </Node>
                                    <Node id="60" recordCount="13.0">
                                        <SimplePredicate field="income" operator="greaterThan" value="90.50345993041992"/>
                                        <Node id="61" score="0" recordCount="11.0">
                                            <SimplePredicate field="response" operator="lessOrEqual" value="0.5"/>
                                            <ScoreDistribution value="0" recordCount="11.0" confidence="1.0"/>
                                            <ScoreDistribution value="1" recordCount="0.0" confidence="0.0"/>
                                            <ScoreDistribution value="2" recordCount="0.0" confidence="0.0"/>
                                        </Node>
                                        <Node id="62" score="1" recordCount="2.0">
                                            <SimplePredicate field="response" operator="greaterThan" value="0.5"/>
                                            <ScoreDistribution value="0" recordCount="0.0" confidence="0.0"/>
                                            <ScoreDistribution value="1" recordCount="2.0" confidence="1.0"/>
                                            <ScoreDistribution value="2" recordCount="0.0" confidence="0.0"/>
                                        </Node>
                                    </Node>
                                </Node>
                                <Node id="63" recordCount="9.0">
                                    <SimplePredicate field="income" operator="greaterThan" value="145.11202239990234"/>
                                    <Node id="64" score="1" recordCount="3.0">
                                        <SimplePredicate field="income" operator="lessOrEqual" value="172.24315643310547"/>
                                        <ScoreDistribution value="0" recordCount="0.0" confidence="0.0"/>
                                        <ScoreDistribution value="1" recordCount="2.0" confidence="0.6666666666666666"/>
                                        <ScoreDistribution value="2" recordCount="1.0" confidence="0.3333333333333333"/>
                                    </Node>
                                    <Node id="65" recordCount="6.0">
                                        <SimplePredicate field="income" operator="greaterThan" value="172.24315643310547"/>
                                        <Node id="66" score="2" recordCount="3.0">
                                            <SimplePredicate field="income" operator="lessOrEqual" value="190.3909149169922"/>
                                            <ScoreDistribution value="0" recordCount="0.0" confidence="0.0"/>
                                            <ScoreDistribution value="1" recordCount="0.0" confidence="0.0"/>
                                            <ScoreDistribution value="2" recordCount="3.0" confidence="1.0"/>
                                        </Node>
                                        <Node id="67" score="1" recordCount="3.0">
                                            <SimplePredicate field="income" operator="greaterThan" value="190.3909149169922"/>
                                            <ScoreDistribution value="0" recordCount="0.0" confidence="0.0"/>
                                            <ScoreDistribution value="1" recordCount="2.0" confidence="0.6666666666666666"/>
                                            <ScoreDistribution value="2" recordCount="1.0" confidence="0.3333333333333333"/>
                                        </Node>
                                    </Node>
                                </Node>
                            </Node>
                        </Node>
                        <Node id="68" recordCount="2166.0">
                            <SimplePredicate field="age" operator="greaterThan" value="31.5"/>
                            <Node id="69" recordCount="1410.0">
                                <SimplePredicate field="age" operator="lessOrEqual" value="59.5"/>
                                <Node id="70" recordCount="970.0">
                                    <SimplePredicate field="income" operator="lessOrEqual" value="149.6566390991211"/>
                                    <Node id="71" recordCount="551.0">
                                        <SimplePredicate field="response" operator="lessOrEqual" value="0.5"/>
                                        <Node id="72" score="0" recordCount="333.0">
                                            <SimplePredicate field="age" operator="lessOrEqual" value="49.5"/>
                                            <ScoreDistribution value="0" recordCount="333.0" confidence="1.0"/>
                                            <ScoreDistribution value="1" recordCount="0.0" confidence="0.0"/>
                                            <ScoreDistribution value="2" recordCount="0.0" confidence="0.0"/>
                                        </Node>
                                        <Node id="73" recordCount="218.0">
                                            <SimplePredicate field="age" operator="greaterThan" value="49.5"/>
                                            <Node id="74" recordCount="107.0">
                                                <SimplePredicate field="age" operator="lessOrEqual" value="54.5"/>
                                                <Node id="75" recordCount="21.0">
                                                    <SimplePredicate field="age" operator="lessOrEqual" value="50.5"/>
                                                    <Node id="76" score="0" recordCount="5.0">
                                                        <SimplePredicate field="income" operator="lessOrEqual" value="71.19622421264648"/>
                                                        <ScoreDistribution value="0" recordCount="5.0" confidence="1.0"/>
                                                        <ScoreDistribution value="1" recordCount="0.0" confidence="0.0"/>
                                                        <ScoreDistribution value="2" recordCount="0.0" confidence="0.0"/>
                                                    </Node>
                                                    <Node id="77" score="1" recordCount="16.0">
                                                        <SimplePredicate field="income" operator="greaterThan" value="71.19622421264648"/>
                                                        <ScoreDistribution value="0" recordCount="0.0" confidence="0.0"/>
                                                        <ScoreDistribution value="1" recordCount="16.0" confidence="1.0"/>
                                                        <ScoreDistribution value="2" recordCount="0.0" confidence="0.0"/>
                                                    </Node>
                                                </Node>
                                                <Node id="78" recordCount="86.0">
                                                    <SimplePredicate field="age" operator="greaterThan" value="50.5"/>
                                                    <Node id="79" score="0" recordCount="28.0">
                                                        <SimplePredicate field="income" operator="lessOrEqual" value="75.25633239746094"/>
                                                        <ScoreDistribution value="0" recordCount="28.0" confidence="1.0"/>
                                                        <ScoreDistribution value="1" recordCount="0.0" confidence="0.0"/>
                                                        <ScoreDistribution value="2" recordCount="0.0" confidence="0.0"/>
                                                    </Node>
                                                    <Node id="80" score="1" recordCount="58.0">
                                                        <SimplePredicate field="income" operator="greaterThan" value="75.25633239746094"/>
                                                        <ScoreDistribution value="0" recordCount="0.0" confidence="0.0"/>
                                                        <ScoreDistribution value="1" recordCount="58.0" confidence="1.0"/>
                                                        <ScoreDistribution value="2" recordCount="0.0" confidence="0.0"/>
                                                    </Node>
                                                </Node>
                                            </Node>
                                            <Node id="81" recordCount="111.0">
                                                <SimplePredicate field="age" operator="greaterThan" value="54.5"/>
                                                <Node id="82" recordCount="72.0">
                                                    <SimplePredicate field="age" operator="lessOrEqual" value="57.5"/>
                                                    <Node id="83" score="0" recordCount="16.0">
                                                        <SimplePredicate field="income" operator="lessOrEqual" value="74.8642463684082"/>
                                                        <ScoreDistribution value="0" recordCount="16.0" confidence="1.0"/>
                                                        <ScoreDistribution value="1" recordCount="0.0" confidence="0.0"/>
                                                        <ScoreDistribution value="2" recordCount="0.0" confidence="0.0"/>
                                                    </Node>
                                                    <Node id="84" score="1" recordCount="56.0">
                                                        <SimplePredicate field="income" operator="greaterThan" value="74.8642463684082"/>
                                                        <ScoreDistribution value="0" recordCount="0.0" confidence="0.0"/>
                                                        <ScoreDistribution value="1" recordCount="56.0" confidence="1.0"/>
                                                        <ScoreDistribution value="2" recordCount="0.0" confidence="0.0"/>
                                                    </Node>
                                                </Node>
                                                <Node id="85" recordCount="39.0">
                                                    <SimplePredicate field="age" operator="greaterThan" value="57.5"/>
                                                    <Node id="86" score="0" recordCount="6.0">
                                                        <SimplePredicate field="income" operator="lessOrEqual" value="74.67930221557617"/>
                                                        <ScoreDistribution value="0" recordCount="6.0" confidence="1.0"/>
                                                        <ScoreDistribution value="1" recordCount="0.0" confidence="0.0"/>
                                                        <ScoreDistribution value="2" recordCount="0.0" confidence="0.0"/>
                                                    </Node>
                                                    <Node id="87" score="1" recordCount="33.0">
                                                        <SimplePredicate field="income" operator="greaterThan" value="74.67930221557617"/>
                                                        <ScoreDistribution value="0" recordCount="0.0" confidence="0.0"/>
                                                        <ScoreDistribution value="1" recordCount="33.0" confidence="1.0"/>
                                                        <ScoreDistribution value="2" recordCount="0.0" confidence="0.0"/>
                                                    </Node>
                                                </Node>
                                            </Node>
                                        </Node>
                                    </Node>
                                    <Node id="88" recordCount="419.0">
                                        <SimplePredicate field="response" operator="greaterThan" value="0.5"/>
                                        <Node id="89" score="1" recordCount="334.0">
                                            <SimplePredicate field="age" operator="lessOrEqual" value="49.5"/>
