<?xml version="1.0" encoding="UTF-8"?>
<PMML xmlns="http://www.dmg.org/PMML-4_4" version="4.4">
    <Header copyright="Copyright (c) 2018 Software AG" description="Default Description">
        <Application name="Nyoka" version="4.1.0"/>
        <Timestamp>2020-01-13 17:44:45.083784</Timestamp>
    </Header>
    <DataDictionary numberOfFields="5">
        <DataField name="age" optype="continuous" dataType="double"/>
        <DataField name="income" optype="continuous" dataType="double"/>
        <DataField name="class" optype="continuous" dataType="double"/>
        <DataField name="response" optype="continuous" dataType="double"/>
        <DataField name="segment" optype="categorical" dataType="integer">
            <Value value="0"/>
            <Value value="1"/>
            <Value value="2"/>
        </DataField>
    </DataDictionary>
    <MiningModel modelName="RandomForestClassifier" functionName="classification">
        <MiningSchema>
            <MiningField name="age" usageType="active" optype="continuous"/>
            <MiningField name="income" usageType="active" optype="continuous"/>
            <MiningField name="class" usageType="active" optype="continuous"/>
            <MiningField name="response" usageType="active" optype="continuous"/>
            <MiningField name="segment" usageType="target" optype="categorical"/>
        </MiningSchema>
        <Output>
            <OutputField name="probability_0" optype="continuous" dataType="double" feature="probability" value="0"/>
            <OutputField name="probability_1" optype="continuous" dataType="double" feature="probability" value="1"/>
            <OutputField name="probability_2" optype="continuous" dataType="double" feature="probability" value="2"/>
            <OutputField name="predicted_segment" optype="categorical" dataType="integer" feature="predictedValue"/>
        </Output>
        <Segmentation multipleModelMethod="majorityVote" missingThreshold="1">
            <Segment id="0" weight="1">
                <True/>
                <TreeModel modelName="DecisionTreeClassifier" functionName="classification" missingValuePenalty="1.0">
                    <MiningSchema>
                        <MiningField name="age" usageType="active"/>
                        <MiningField name="income" usageType="active"/>
                        <MiningField name="class" usageType="active"/>
                        <MiningField name="response" usageType="active"/>
                    </MiningSchema>
                    <Node id="0" recordCount="1888.0">
                        <True/>
                        <Node id="1" recordCount="1254.0">
                            <SimplePredicate field="class" operator="lessOrEqual" value="0.5"/>
                            <Node id="2" recordCount="901.0">
                                <SimplePredicate field="age" operator="lessOrEqual" value="47.5"/>
                                <Node id="3" recordCount="329.0">
                                    <SimplePredicate field="income" operator="lessOrEqual" value="53.07546424865723"/>
                                    <Node id="4" score="0" recordCount="152.0">
                                        <SimplePredicate field="response" operator="lessOrEqual" value="0.5"/>
                                        <ScoreDistribution value="0" recordCount="239.0" confidence="1.0"/>
                                        <ScoreDistribution value="1" recordCount="0.0" confidence="0.0"/>
                                        <ScoreDistribution value="2" recordCount="0.0" confidence="0.0"/>
                                    </Node>
                                    <Node id="5" score="1" recordCount="177.0">
                                        <SimplePredicate field="response" operator="greaterThan" value="0.5"/>
                                        <ScoreDistribution value="0" recordCount="0.0" confidence="0.0"/>
                                        <ScoreDistribution value="1" recordCount="287.0" confidence="1.0"/>
                                        <ScoreDistribution value="2" recordCount="0.0" confidence="0.0"/>
                                    </Node>
                                </Node>
                                <Node id="6" recordCount="572.0">
                                    <SimplePredicate field="income" operator="greaterThan" value="53.07546424865723"/>
                                    <Node id="7" score="0" recordCount="288.0">
                                        <SimplePredicate field="response" operator="lessOrEqual" value="0.5"/>
                                        <ScoreDistribution value="0" recordCount="488.0" confidence="1.0"/>
                                        <ScoreDistribution value="1" recordCount="0.0" confidence="0.0"/>
                                        <ScoreDistribution value="2" recordCount="0.0" confidence="0.0"/>
                                    </Node>
                                    <Node id="8" score="1" recordCount="284.0">
                                        <SimplePredicate field="response" operator="greaterThan" value="0.5"/>
                                        <ScoreDistribution value="0" recordCount="0.0" confidence="0.0"/>
                                        <ScoreDistribution value="1" recordCount="449.0" confidence="1.0"/>
                                        <ScoreDistribution value="2" recordCount="0.0" confidence="0.0"/>
                                    </Node>
                                </Node>
                            </Node>
                            <Node id="9" recordCount="353.0">
                                <SimplePredicate field="age" operator="greaterThan" value="47.5"/>
                                <Node id="10" recordCount="264.0">
                                    <SimplePredicate field="income" operator="lessOrEqual" value="80.98052215576172"/>
                                    <Node id="11" score="0" recordCount="192.0">
                                        <SimplePredicate field="response" operator="lessOrEqual" value="0.5"/>
                                        <ScoreDistribution value="0" recordCount="296.0" confidence="1.0"/>
                                        <ScoreDistribution value="1" recordCount="0.0" confidence="0.0"/>
                                        <ScoreDistribution value="2" recordCount="0.0" confidence="0.0"/>
                                    </Node>
                                    <Node id="12" score="1" recordCount="72.0">
                                        <SimplePredicate field="response" operator="greaterThan" value="0.5"/>
                                        <ScoreDistribution value="0" recordCount="0.0" confidence="0.0"/>
                                        <ScoreDistribution value="1" recordCount="103.0" confidence="1.0"/>
                                        <ScoreDistribution value="2" recordCount="0.0" confidence="0.0"/>
                                    </Node>
                                </Node>
                                <Node id="13" recordCount="89.0">
                                    <SimplePredicate field="income" operator="greaterThan" value="80.98052215576172"/>
                                    <Node id="14" score="1" recordCount="11.0">
                                        <SimplePredicate field="income" operator="lessOrEqual" value="82.93860244750977"/>
                                        <ScoreDistribution value="0" recordCount="4.0" confidence="0.16666666666666666"/>
                                        <ScoreDistribution value="1" recordCount="20.0" confidence="0.8333333333333334"/>
                                        <ScoreDistribution value="2" recordCount="0.0" confidence="0.0"/>
                                    </Node>
                                    <Node id="15" score="0" recordCount="78.0">
                                        <SimplePredicate field="income" operator="greaterThan" value="82.93860244750977"/>
                                        <ScoreDistribution value="0" recordCount="84.0" confidence="0.65625"/>
                                        <ScoreDistribution value="1" recordCount="44.0" confidence="0.34375"/>
                                        <ScoreDistribution value="2" recordCount="0.0" confidence="0.0"/>
                                    </Node>
                                </Node>
                            </Node>
                        </Node>
                        <Node id="16" recordCount="634.0">
                            <SimplePredicate field="class" operator="greaterThan" value="0.5"/>
                            <Node id="17" recordCount="116.0">
                                <SimplePredicate field="age" operator="lessOrEqual" value="49.5"/>
                                <Node id="18" recordCount="25.0">
                                    <SimplePredicate field="age" operator="lessOrEqual" value="37.5"/>
                                    <Node id="19" score="1" recordCount="19.0">
                                        <SimplePredicate field="income" operator="lessOrEqual" value="102.16872787475586"/>
                                        <ScoreDistribution value="0" recordCount="0.0" confidence="0.0"/>
                                        <ScoreDistribution value="1" recordCount="20.0" confidence="0.6451612903225806"/>
                                        <ScoreDistribution value="2" recordCount="11.0" confidence="0.3548387096774194"/>
                                    </Node>
                                    <Node id="20" score="2" recordCount="6.0">
                                        <SimplePredicate field="income" operator="greaterThan" value="102.16872787475586"/>
                                        <ScoreDistribution value="0" recordCount="0.0" confidence="0.0"/>
                                        <ScoreDistribution value="1" recordCount="1.0" confidence="0.14285714285714285"/>
                                        <ScoreDistribution value="2" recordCount="6.0" confidence="0.8571428571428571"/>
                                    </Node>
                                </Node>
                                <Node id="21" recordCount="91.0">
                                    <SimplePredicate field="age" operator="greaterThan" value="37.5"/>
                                    <Node id="22" score="1" recordCount="37.0">
                                        <SimplePredicate field="response" operator="lessOrEqual" value="0.5"/>
                                        <ScoreDistribution value="0" recordCount="0.0" confidence="0.0"/>
                                        <ScoreDistribution value="1" recordCount="60.0" confidence="1.0"/>
                                        <ScoreDistribution value="2" recordCount="0.0" confidence="0.0"/>
                                    </Node>
                                    <Node id="23" score="2" recordCount="54.0">
                                        <SimplePredicate field="response" operator="greaterThan" value="0.5"/>
                                        <ScoreDistribution value="0" recordCount="0.0" confidence="0.0"/>
                                        <ScoreDistribution value="1" recordCount="0.0" confidence="0.0"/>
                                        <ScoreDistribution value="2" recordCount="82.0" confidence="1.0"/>
                                    </Node>
                                </Node>
                            </Node>
                            <Node id="24" recordCount="518.0">
                                <SimplePredicate field="age" operator="greaterThan" value="49.5"/>
                                <Node id="25" score="1" recordCount="351.0">
                                    <SimplePredicate field="response" operator="lessOrEqual" value="0.5"/>
                                    <ScoreDistribution value="0" recordCount="0.0" confidence="0.0"/>
                                    <ScoreDistribution value="1" recordCount="550.0" confidence="1.0"/>
                                    <ScoreDistribution value="2" recordCount="0.0" confidence="0.0"/>
                                </Node>
                                <Node id="26" score="2" recordCount="167.0">
                                    <SimplePredicate field="response" operator="greaterThan" value="0.5"/>
                                    <ScoreDistribution value="0" recordCount="0.0" confidence="0.0"/>
                                    <ScoreDistribution value="1" recordCount="0.0" confidence="0.0"/>
                                    <ScoreDistribution value="2" recordCount="256.0" confidence="1.0"/>
                                </Node>
                            </Node>
                        </Node>
                    </Node>
                </TreeModel>
            </Segment>
            <Segment id="1" weight="1">
                <True/>
                <TreeModel modelName="DecisionTreeClassifier" functionName="classification" missingValuePenalty="1.0">
                    <MiningSchema>
                        <MiningField name="age" usageType="active"/>
                        <MiningField name="income" usageType="active"/>
                        <MiningField name="class" usageType="active"/>
                        <MiningField name="response" usageType="active"/>
                    </MiningSchema>
                    <Node id="0" recordCount="1887.0">
                        <True/>
                        <Node id="1" recordCount="1089.0">
                            <SimplePredicate field="response" operator="lessOrEqual" value="0.5"/>
                            <Node id="2" recordCount="471.0">
                                <SimplePredicate field="age" operator="lessOrEqual" value="47.5"/>
                                <Node id="3" recordCount="433.0">
                                    <SimplePredicate field="income" operator="lessOrEqual" value="92.17860794067383"/>
                                    <Node id="4" score="0" recordCount="431.0">
                                        <SimplePredicate field="class" operator="lessOrEqual" value="0.5"/>
                                        <ScoreDistribution value="0" recordCount="702.0" confidence="1.0"/>
                                        <ScoreDistribution value="1" recordCount="0.0" confidence="0.0"/>
                                        <ScoreDistribution value="2" recordCount="0.0" confidence="0.0"/>
                                    </Node>
                                    <Node id="5" score="1" recordCount="2.0">
                                        <SimplePredicate field="class" operator="greaterThan" value="0.5"/>
                                        <ScoreDistribution value="0" recordCount="0.0" confidence="0.0"/>
                                        <ScoreDistribution value="1" recordCount="3.0" confidence="1.0"/>
                                        <ScoreDistribution value="2" recordCount="0.0" confidence="0.0"/>
                                    </Node>
                                </Node>
                                <Node id="6" recordCount="38.0">
                                    <SimplePredicate field="income" operator="greaterThan" value="92.17860794067383"/>
                                    <Node id="7" score="1" recordCount="15.0">
                                        <SimplePredicate field="income" operator="lessOrEqual" value="96.13903045654297"/>
                                        <ScoreDistribution value="0" recordCount="9.0" confidence="0.3333333333333333"/>
                                        <ScoreDistribution value="1" recordCount="18.0" confidence="0.6666666666666666"/>
                                        <ScoreDistribution value="2" recordCount="0.0" confidence="0.0"/>
                                    </Node>
                                    <Node id="8" score="1" recordCount="23.0">
                                        <SimplePredicate field="income" operator="greaterThan" value="96.13903045654297"/>
                                        <ScoreDistribution value="0" recordCount="1.0" confidence="0.030303030303030304"/>
                                        <ScoreDistribution value="1" recordCount="32.0" confidence="0.9696969696969697"/>
                                        <ScoreDistribution value="2" recordCount="0.0" confidence="0.0"/>
                                    </Node>
                                </Node>
                            </Node>
                            <Node id="9" recordCount="618.0">
                                <SimplePredicate field="age" operator="greaterThan" value="47.5"/>
                                <Node id="10" score="0" recordCount="250.0">
                                    <SimplePredicate field="class" operator="lessOrEqual" value="0.5"/>
                                    <ScoreDistribution value="0" recordCount="386.0" confidence="1.0"/>
                                    <ScoreDistribution value="1" recordCount="0.0" confidence="0.0"/>
                                    <ScoreDistribution value="2" recordCount="0.0" confidence="0.0"/>
                                </Node>
                                <Node id="11" score="1" recordCount="368.0">
                                    <SimplePredicate field="class" operator="greaterThan" value="0.5"/>
                                    <ScoreDistribution value="0" recordCount="0.0" confidence="0.0"/>
                                    <ScoreDistribution value="1" recordCount="582.0" confidence="1.0"/>
                                    <ScoreDistribution value="2" recordCount="0.0" confidence="0.0"/>
                                </Node>
                            </Node>
                        </Node>
                        <Node id="12" recordCount="798.0">
                            <SimplePredicate field="response" operator="greaterThan" value="0.5"/>
                            <Node id="13" score="1" recordCount="576.0">
                                <SimplePredicate field="class" operator="lessOrEqual" value="0.5"/>
                                <ScoreDistribution value="0" recordCount="0.0" confidence="0.0"/>
                                <ScoreDistribution value="1" recordCount="914.0" confidence="1.0"/>
                                <ScoreDistribution value="2" recordCount="0.0" confidence="0.0"/>
                            </Node>
                            <Node id="14" score="2" recordCount="222.0">
                                <SimplePredicate field="class" operator="greaterThan" value="0.5"/>
                                <ScoreDistribution value="0" recordCount="0.0" confidence="0.0"/>
                                <ScoreDistribution value="1" recordCount="0.0" confidence="0.0"/>
                                <ScoreDistribution value="2" recordCount="353.0" confidence="1.0"/>
                            </Node>
                        </Node>
                    </Node>
                </TreeModel>
            </Segment>
            <Segment id="2" weight="1">
                <True/>
                <TreeModel modelName="DecisionTreeClassifier" functionName="classification" missingValuePenalty="1.0">
                    <MiningSchema>
                        <MiningField name="age" usageType="active"/>
                        <MiningField name="income" usageType="active"/>
                        <MiningField name="class" usageType="active"/>
                        <MiningField name="response" usageType="active"/>
                    </MiningSchema>
                    <Node id="0" recordCount="1894.0">
                        <True/>
                        <Node id="1" recordCount="1105.0">
                            <SimplePredicate field="response" operator="lessOrEqual" value="0.5"/>
                            <Node id="2" recordCount="485.0">
                                <SimplePredicate field="age" operator="lessOrEqual" value="47.5"/>
                                <Node id="3" recordCount="306.0">
                                    <SimplePredicate field="age" operator="lessOrEqual" value="35.5"/>
                                    <Node id="4" score="0" recordCount="296.0">
                                        <SimplePredicate field="class" operator="lessOrEqual" value="0.5"/>
                                        <ScoreDistribution value="0" recordCount="463.0" confidence="1.0"/>
                                        <ScoreDistribution value="1" recordCount="0.0" confidence="0.0"/>
                                        <ScoreDistribution value="2" recordCount="0.0" confidence="0.0"/>
                                    </Node>
                                    <Node id="5" score="1" recordCount="10.0">
                                        <SimplePredicate field="class" operator="greaterThan" value="0.5"/>
                                        <ScoreDistribution value="0" recordCount="0.0" confidence="0.0"/>
                                        <ScoreDistribution value="1" recordCount="12.0" confidence="1.0"/>
                                        <ScoreDistribution value="2" recordCount="0.0" confidence="0.0"/>
                                    </Node>
                                </Node>
                                <Node id="6" recordCount="179.0">
                                    <SimplePredicate field="age" operator="greaterThan" value="35.5"/>
                                    <Node id="7" score="0" recordCount="146.0">
                                        <SimplePredicate field="class" operator="lessOrEqual" value="0.5"/>
                                        <ScoreDistribution value="0" recordCount="230.0" confidence="1.0"/>
                                        <ScoreDistribution value="1" recordCount="0.0" confidence="0.0"/>
                                        <ScoreDistribution value="2" recordCount="0.0" confidence="0.0"/>
                                    </Node>
                                    <Node id="8" score="1" recordCount="33.0">
                                        <SimplePredicate field="class" operator="greaterThan" value="0.5"/>
                                        <ScoreDistribution value="0" recordCount="0.0" confidence="0.0"/>
                                        <ScoreDistribution value="1" recordCount="52.0" confidence="1.0"/>
                                        <ScoreDistribution value="2" recordCount="0.0" confidence="0.0"/>
                                    </Node>
                                </Node>
                            </Node>
                            <Node id="9" recordCount="620.0">
                                <SimplePredicate field="age" operator="greaterThan" value="47.5"/>
                                <Node id="10" score="0" recordCount="253.0">
                                    <SimplePredicate field="class" operator="lessOrEqual" value="0.5"/>
                                    <ScoreDistribution value="0" recordCount="423.0" confidence="1.0"/>
                                    <ScoreDistribution value="1" recordCount="0.0" confidence="0.0"/>
                                    <ScoreDistribution value="2" recordCount="0.0" confidence="0.0"/>
                                </Node>
                                <Node id="11" score="1" recordCount="367.0">
                                    <SimplePredicate field="class" operator="greaterThan" value="0.5"/>
                                    <ScoreDistribution value="0" recordCount="0.0" confidence="0.0"/>
                                    <ScoreDistribution value="1" recordCount="596.0" confidence="1.0"/>
                                    <ScoreDistribution value="2" recordCount="0.0" confidence="0.0"/>
                                </Node>
                            </Node>
                        </Node>
                        <Node id="12" recordCount="789.0">
                            <SimplePredicate field="response" operator="greaterThan" value="0.5"/>
                            <Node id="13" recordCount="581.0">
                                <SimplePredicate field="income" operator="lessOrEqual" value="90.05989074707031"/>
                                <Node id="14" score="1" recordCount="475.0">
                                    <SimplePredicate field="income" operator="lessOrEqual" value="80.15987014770508"/>
                                    <ScoreDistribution value="0" recordCount="0.0" confidence="0.0"/>
                                    <ScoreDistribution value="1" recordCount="729.0" confidence="1.0"/>
                                    <ScoreDistribution value="2" recordCount="0.0" confidence="0.0"/>
                                </Node>
                                <Node id="15" recordCount="106.0">
                                    <SimplePredicate field="income" operator="greaterThan" value="80.15987014770508"/>
                                    <Node id="16" score="1" recordCount="64.0">
                                        <SimplePredicate field="age" operator="lessOrEqual" value="49.5"/>
                                        <ScoreDistribution value="0" recordCount="0.0" confidence="0.0"/>
                                        <ScoreDistribution value="1" recordCount="101.0" confidence="1.0"/>
                                        <ScoreDistribution value="2" recordCount="0.0" confidence="0.0"/>
                                    </Node>
                                    <Node id="17" score="1" recordCount="42.0">
                                        <SimplePredicate field="age" operator="greaterThan" value="49.5"/>
                                        <ScoreDistribution value="0" recordCount="0.0" confidence="0.0"/>
                                        <ScoreDistribution value="1" recordCount="37.0" confidence="0.6065573770491803"/>
                                        <ScoreDistribution value="2" recordCount="24.0" confidence="0.39344262295081966"/>
                                    </Node>
                                </Node>
                            </Node>
                            <Node id="18" recordCount="208.0">
                                <SimplePredicate field="income" operator="greaterThan" value="90.05989074707031"/>
                                <Node id="19" score="1" recordCount="5.0">
                                    <SimplePredicate field="class" operator="lessOrEqual" value="0.5"/>
                                    <ScoreDistribution value="0" recordCount="0.0" confidence="0.0"/>
                                    <ScoreDistribution value="1" recordCount="7.0" confidence="1.0"/>
                                    <ScoreDistribution value="2" recordCount="0.0" confidence="0.0"/>
                                </Node>
                                <Node id="20" score="2" recordCount="203.0">
                                    <SimplePredicate field="class" operator="greaterThan" value="0.5"/>
                                    <ScoreDistribution value="0" recordCount="0.0" confidence="0.0"/>
                                    <ScoreDistribution value="1" recordCount="0.0" confidence="0.0"/>
                                    <ScoreDistribution value="2" recordCount="326.0" confidence="1.0"/>
                                </Node>
                            </Node>
                        </Node>
                    </Node>
                </TreeModel>
            </Segment>
            <Segment id="3" weight="1">
                <True/>
                <TreeModel modelName="DecisionTreeClassifier" functionName="classification" missingValuePenalty="1.0">
                    <MiningSchema>
                        <MiningField name="age" usageType="active"/>
                        <MiningField name="income" usageType="active"/>
                        <MiningField name="class" usageType="active"/>
                        <MiningField name="response" usageType="active"/>
                    </MiningSchema>
                    <Node id="0" recordCount="1898.0">
                        <True/>
                        <Node id="1" recordCount="1099.0">
                            <SimplePredicate field="response" operator="lessOrEqual" value="0.5"/>
                            <Node id="2" recordCount="529.0">
                                <SimplePredicate field="age" operator="lessOrEqual" value="49.5"/>
                                <Node id="3" score="0" recordCount="479.0">
                                    <SimplePredicate field="class" operator="lessOrEqual" value="0.5"/>
                                    <ScoreDistribution value="0" recordCount="755.0" confidence="1.0"/>
                                    <ScoreDistribution value="1" recordCount="0.0" confidence="0.0"/>
                                    <ScoreDistribution value="2" recordCount="0.0" confidence="0.0"/>
                                </Node>
                                <Node id="4" score="1" recordCount="50.0">
                                    <SimplePredicate field="class" operator="greaterThan" value="0.5"/>
                                    <ScoreDistribution value="0" recordCount="0.0" confidence="0.0"/>
                                    <ScoreDistribution value="1" recordCount="71.0" confidence="1.0"/>
                                    <ScoreDistribution value="2" recordCount="0.0" confidence="0.0"/>
                                </Node>
                            </Node>
                            <Node id="5" recordCount="570.0">
                                <SimplePredicate field="age" operator="greaterThan" value="49.5"/>
                                <Node id="6" recordCount="265.0">
                                    <SimplePredicate field="income" operator="lessOrEqual" value="90.00553512573242"/>
                                    <Node id="7" score="0" recordCount="228.0">
                                        <SimplePredicate field="class" operator="lessOrEqual" value="0.5"/>
                                        <ScoreDistribution value="0" recordCount="372.0" confidence="1.0"/>
                                        <ScoreDistribution value="1" recordCount="0.0" confidence="0.0"/>
                                        <ScoreDistribution value="2" recordCount="0.0" confidence="0.0"/>
                                    </Node>
                                    <Node id="8" score="1" recordCount="37.0">
                                        <SimplePredicate field="class" operator="greaterThan" value="0.5"/>
                                        <ScoreDistribution value="0" recordCount="0.0" confidence="0.0"/>
                                        <ScoreDistribution value="1" recordCount="56.0" confidence="1.0"/>
                                        <ScoreDistribution value="2" recordCount="0.0" confidence="0.0"/>
                                    </Node>
                                </Node>
                                <Node id="9" score="1" recordCount="305.0">
                                    <SimplePredicate field="income" operator="greaterThan" value="90.00553512573242"/>
                                    <ScoreDistribution value="0" recordCount="0.0" confidence="0.0"/>
                                    <ScoreDistribution value="1" recordCount="485.0" confidence="1.0"/>
                                    <ScoreDistribution value="2" recordCount="0.0" confidence="0.0"/>
                                </Node>
                            </Node>
                        </Node>
                        <Node id="10" recordCount="799.0">
                            <SimplePredicate field="response" operator="greaterThan" value="0.5"/>
                            <Node id="11" recordCount="592.0">
                                <SimplePredicate field="income" operator="lessOrEqual" value="90.05989074707031"/>
                                <Node id="12" score="1" recordCount="481.0">
                                    <SimplePredicate field="age" operator="lessOrEqual" value="49.5"/>
                                    <ScoreDistribution value="0" recordCount="0.0" confidence="0.0"/>
                                    <ScoreDistribution value="1" recordCount="751.0" confidence="1.0"/>
                                    <ScoreDistribution value="2" recordCount="0.0" confidence="0.0"/>
                                </Node>
                                <Node id="13" recordCount="111.0">
                                    <SimplePredicate field="age" operator="greaterThan" value="49.5"/>
                                    <Node id="14" score="1" recordCount="58.0">
                                        <SimplePredicate field="income" operator="lessOrEqual" value="80.17462158203125"/>
                                        <ScoreDistribution value="0" recordCount="0.0" confidence="0.0"/>
                                        <ScoreDistribution value="1" recordCount="96.0" confidence="1.0"/>
                                        <ScoreDistribution value="2" recordCount="0.0" confidence="0.0"/>
                                    </Node>
                                    <Node id="15" score="1" recordCount="53.0">
                                        <SimplePredicate field="income" operator="greaterThan" value="80.17462158203125"/>
                                        <ScoreDistribution value="0" recordCount="0.0" confidence="0.0"/>
                                        <ScoreDistribution value="1" recordCount="43.0" confidence="0.5512820512820513"/>
                                        <ScoreDistribution value="2" recordCount="35.0" confidence="0.44871794871794873"/>
                                    </Node>
                                </Node>
                            </Node>
                            <Node id="16" recordCount="207.0">
                                <SimplePredicate field="income" operator="greaterThan" value="90.05989074707031"/>
                                <Node id="17" score="1" recordCount="2.0">
                                    <SimplePredicate field="age" operator="lessOrEqual" value="24.5"/>
                                    <ScoreDistribution value="0" recordCount="0.0" confidence="0.0"/>
                                    <ScoreDistribution value="1" recordCount="2.0" confidence="0.5"/>
                                    <ScoreDistribution value="2" recordCount="2.0" confidence="0.5"/>
                                </Node>
                                <Node id="18" score="2" recordCount="205.0">
                                    <SimplePredicate field="age" operator="greaterThan" value="24.5"/>
                                    <ScoreDistribution value="0" recordCount="0.0" confidence="0.0"/>
                                    <ScoreDistribution value="1" recordCount="0.0" confidence="0.0"/>
                                    <ScoreDistribution value="2" recordCount="332.0" confidence="1.0"/>
                                </Node>
                            </Node>
                        </Node>
                    </Node>
                </TreeModel>
            </Segment>
            <Segment id="4" weight="1">
                <True/>
                <TreeModel modelName="DecisionTreeClassifier" functionName="classification" missingValuePenalty="1.0">
                    <MiningSchema>
                        <MiningField name="age" usageType="active"/>
                        <MiningField name="income" usageType="active"/>
                        <MiningField name="class" usageType="active"/>
                        <MiningField name="response" usageType="active"/>
                    </MiningSchema>
                    <Node id="0" recordCount="1889.0">
                        <True/>
                        <Node id="1" recordCount="1290.0">
                            <SimplePredicate field="class" operator="lessOrEqual" value="0.5"/>
                            <Node id="2" score="0" recordCount="709.0">
                                <SimplePredicate field="response" operator="lessOrEqual" value="0.5"/>
                                <ScoreDistribution value="0" recordCount="1139.0" confidence="1.0"/>
                                <ScoreDistribution value="1" recordCount="0.0" confidence="0.0"/>
                                <ScoreDistribution value="2" recordCount="0.0" confidence="0.0"/>
                            </Node>
                            <Node id="3" score="1" recordCount="581.0">
                                <SimplePredicate field="response" operator="greaterThan" value="0.5"/>
                                <ScoreDistribution value="0" recordCount="0.0" confidence="0.0"/>
                                <ScoreDistribution value="1" recordCount="923.0" confidence="1.0"/>
                                <ScoreDistribution value="2" recordCount="0.0" confidence="0.0"/>
                            </Node>
                        </Node>
                        <Node id="4" recordCount="599.0">
                            <SimplePredicate field="class" operator="greaterThan" value="0.5"/>
                            <Node id="5" score="1" recordCount="380.0">
                                <SimplePredicate field="response" operator="lessOrEqual" value="0.5"/>
                                <ScoreDistribution value="0" recordCount="0.0" confidence="0.0"/>
                                <ScoreDistribution value="1" recordCount="598.0" confidence="1.0"/>
                                <ScoreDistribution value="2" recordCount="0.0" confidence="0.0"/>
                            </Node>
                            <Node id="6" score="2" recordCount="219.0">
                                <SimplePredicate field="response" operator="greaterThan" value="0.5"/>
                                <ScoreDistribution value="0" recordCount="0.0" confidence="0.0"/>
                                <ScoreDistribution value="1" recordCount="0.0" confidence="0.0"/>
                                <ScoreDistribution value="2" recordCount="340.0" confidence="1.0"/>
                            </Node>
                        </Node>
                    </Node>
                </TreeModel>
            </Segment>
            <Segment id="5" weight="1">
                <True/>
                <TreeModel modelName="DecisionTreeClassifier" functionName="classification" missingValuePenalty="1.0">
                    <MiningSchema>
                        <MiningField name="age" usageType="active"/>
                        <MiningField name="income" usageType="active"/>
                        <MiningField name="class" usageType="active"/>
                        <MiningField name="response" usageType="active"/>
                    </MiningSchema>
                    <Node id="0" recordCount="1893.0">
                        <True/>
                        <Node id="1" recordCount="1088.0">
                            <SimplePredicate field="response" operator="lessOrEqual" value="0.5"/>
                            <Node id="2" recordCount="715.0">
                                <SimplePredicate field="income" operator="lessOrEqual" value="90.15522766113281"/>
                                <Node id="3" score="0" recordCount="570.0">
                                    <SimplePredicate field="income" operator="lessOrEqual" value="80.08127212524414"/>
                                    <ScoreDistribution value="0" recordCount="905.0" confidence="1.0"/>
                                    <ScoreDistribution value="1" recordCount="0.0" confidence="0.0"/>
                                    <ScoreDistribution value="2" recordCount="0.0" confidence="0.0"/>
                                </Node>
                                <Node id="4" recordCount="145.0">
                                    <SimplePredicate field="income" operator="greaterThan" value="80.08127212524414"/>
                                    <Node id="5" score="0" recordCount="56.0">
                                        <SimplePredicate field="age" operator="lessOrEqual" value="49.5"/>
                                        <ScoreDistribution value="0" recordCount="81.0" confidence="1.0"/>
                                        <ScoreDistribution value="1" recordCount="0.0" confidence="0.0"/>
                                        <ScoreDistribution value="2" recordCount="0.0" confidence="0.0"/>
                                    </Node>
                                    <Node id="6" score="0" recordCount="89.0">
                                        <SimplePredicate field="age" operator="greaterThan" value="49.5"/>
                                        <ScoreDistribution value="0" recordCount="74.0" confidence="0.556390977443609"/>
                                        <ScoreDistribution value="1" recordCount="59.0" confidence="0.44360902255639095"/>
                                        <ScoreDistribution value="2" recordCount="0.0" confidence="0.0"/>
                                    </Node>
                                </Node>
                            </Node>
                            <Node id="7" recordCount="373.0">
                                <SimplePredicate field="income" operator="greaterThan" value="90.15522766113281"/>
                                <Node id="8" recordCount="7.0">
                                    <SimplePredicate field="age" operator="lessOrEqual" value="29.5"/>
                                    <Node id="9" score="0" recordCount="2.0">
                                        <SimplePredicate field="age" operator="lessOrEqual" value="20.5"/>
                                        <ScoreDistribution value="0" recordCount="1.0" confidence="0.5"/>
                                        <ScoreDistribution value="1" recordCount="1.0" confidence="0.5"/>
                                        <ScoreDistribution value="2" recordCount="0.0" confidence="0.0"/>
                                    </Node>
                                    <Node id="10" score="0" recordCount="5.0">
                                        <SimplePredicate field="age" operator="greaterThan" value="20.5"/>
                                        <ScoreDistribution value="0" recordCount="5.0" confidence="1.0"/>
                                        <ScoreDistribution value="1" recordCount="0.0" confidence="0.0"/>
                                        <ScoreDistribution value="2" recordCount="0.0" confidence="0.0"/>
                                    </Node>
                                </Node>
                                <Node id="11" score="1" recordCount="366.0">
                                    <SimplePredicate field="age" operator="greaterThan" value="29.5"/>
                                    <ScoreDistribution value="0" recordCount="0.0" confidence="0.0"/>
                                    <ScoreDistribution value="1" recordCount="585.0" confidence="1.0"/>
                                    <ScoreDistribution value="2" recordCount="0.0" confidence="0.0"/>
                                </Node>
                            </Node>
                        </Node>
                        <Node id="12" recordCount="805.0">
                            <SimplePredicate field="response" operator="greaterThan" value="0.5"/>
                            <Node id="13" score="1" recordCount="581.0">
                                <SimplePredicate field="class" operator="lessOrEqual" value="0.5"/>
                                <ScoreDistribution value="0" recordCount="0.0" confidence="0.0"/>
                                <ScoreDistribution value="1" recordCount="929.0" confidence="1.0"/>
                                <ScoreDistribution value="2" recordCount="0.0" confidence="0.0"/>
                            </Node>
                            <Node id="14" score="2" recordCount="224.0">
                                <SimplePredicate field="class" operator="greaterThan" value="0.5"/>
                                <ScoreDistribution value="0" recordCount="0.0" confidence="0.0"/>
                                <ScoreDistribution value="1" recordCount="0.0" confidence="0.0"/>
                                <ScoreDistribution value="2" recordCount="360.0" confidence="1.0"/>
                            </Node>
                        </Node>
                    </Node>
                </TreeModel>
            </Segment>
            <Segment id="6" weight="1">
                <True/>
                <TreeModel modelName="DecisionTreeClassifier" functionName="classification" missingValuePenalty="1.0">
                    <MiningSchema>
                        <MiningField name="age" usageType="active"/>
                        <MiningField name="income" usageType="active"/>
                        <MiningField name="class" usageType="active"/>
                        <MiningField name="response" usageType="active"/>
                    </MiningSchema>
                    <Node id="0" recordCount="1888.0">
                        <True/>
                        <Node id="1" recordCount="1082.0">
                            <SimplePredicate field="response" operator="lessOrEqual" value="0.5"/>
                            <Node id="2" recordCount="717.0">
                                <SimplePredicate field="income" operator="lessOrEqual" value="90.07212448120117"/>
                                <Node id="3" score="0" recordCount="454.0">
                                    <SimplePredicate field="age" operator="lessOrEqual" value="49.5"/>
                                    <ScoreDistribution value="0" recordCount="720.0" confidence="1.0"/>
                                    <ScoreDistribution value="1" recordCount="0.0" confidence="0.0"/>
                                    <ScoreDistribution value="2" recordCount="0.0" confidence="0.0"/>
                                </Node>
                                <Node id="4" recordCount="263.0">
                                    <SimplePredicate field="age" operator="greaterThan" value="49.5"/>
                                    <Node id="5" score="0" recordCount="228.0">
                                        <SimplePredicate field="class" operator="lessOrEqual" value="0.5"/>
                                        <ScoreDistribution value="0" recordCount="363.0" confidence="1.0"/>
                                        <ScoreDistribution value="1" recordCount="0.0" confidence="0.0"/>
                                        <ScoreDistribution value="2" recordCount="0.0" confidence="0.0"/>
                                    </Node>
                                    <Node id="6" score="1" recordCount="35.0">
                                        <SimplePredicate field="class" operator="greaterThan" value="0.5"/>
                                        <ScoreDistribution value="0" recordCount="0.0" confidence="0.0"/>
                                        <ScoreDistribution value="1" recordCount="50.0" confidence="1.0"/>
                                        <ScoreDistribution value="2" recordCount="0.0" confidence="0.0"/>
                                    </Node>
                                </Node>
                            </Node>
                            <Node id="7" recordCount="365.0">
                                <SimplePredicate field="income" operator="greaterThan" value="90.07212448120117"/>
                                <Node id="8" score="0" recordCount="5.0">
                                    <SimplePredicate field="age" operator="lessOrEqual" value="29.5"/>
                                    <ScoreDistribution value="0" recordCount="6.0" confidence="1.0"/>
                                    <ScoreDistribution value="1" recordCount="0.0" confidence="0.0"/>
                                    <ScoreDistribution value="2" recordCount="0.0" confidence="0.0"/>
                                </Node>
                                <Node id="9" score="1" recordCount="360.0">
                                    <SimplePredicate field="age" operator="greaterThan" value="29.5"/>
                                    <ScoreDistribution value="0" recordCount="0.0" confidence="0.0"/>
                                    <ScoreDistribution value="1" recordCount="580.0" confidence="1.0"/>
                                    <ScoreDistribution value="2" recordCount="0.0" confidence="0.0"/>
                                </Node>
                            </Node>
                        </Node>
                        <Node id="10" recordCount="806.0">
                            <SimplePredicate field="response" operator="greaterThan" value="0.5"/>
                            <Node id="11" recordCount="593.0">
                                <SimplePredicate field="income" operator="lessOrEqual" value="90.02739715576172"/>
                                <Node id="12" score="1" recordCount="573.0">
                                    <SimplePredicate field="class" operator="lessOrEqual" value="0.5"/>
                                    <ScoreDistribution value="0" recordCount="0.0" confidence="0.0"/>
                                    <ScoreDistribution value="1" recordCount="925.0" confidence="1.0"/>
                                    <ScoreDistribution value="2" recordCount="0.0" confidence="0.0"/>
                                </Node>
                                <Node id="13" score="2" recordCount="20.0">
                                    <SimplePredicate field="class" operator="greaterThan" value="0.5"/>
                                    <ScoreDistribution value="0" recordCount="0.0" confidence="0.0"/>
                                    <ScoreDistribution value="1" recordCount="0.0" confidence="0.0"/>
                                    <ScoreDistribution value="2" recordCount="33.0" confidence="1.0"/>
                                </Node>
                            </Node>
                            <Node id="14" recordCount="213.0">
                                <SimplePredicate field="income" operator="greaterThan" value="90.02739715576172"/>
                                <Node id="15" recordCount="55.0">
                                    <SimplePredicate field="income" operator="lessOrEqual" value="95.83393478393555"/>
                                    <Node id="16" score="1" recordCount="4.0">
                                        <SimplePredicate field="class" operator="lessOrEqual" value="0.5"/>
                                        <ScoreDistribution value="0" recordCount="0.0" confidence="0.0"/>
                                        <ScoreDistribution value="1" recordCount="4.0" confidence="1.0"/>
                                        <ScoreDistribution value="2" recordCount="0.0" confidence="0.0"/>
                                    </Node>
                                    <Node id="17" score="2" recordCount="51.0">
                                        <SimplePredicate field="class" operator="greaterThan" value="0.5"/>
                                        <ScoreDistribution value="0" recordCount="0.0" confidence="0.0"/>
                                        <ScoreDistribution value="1" recordCount="0.0" confidence="0.0"/>
                                        <ScoreDistribution value="2" recordCount="80.0" confidence="1.0"/>
                                    </Node>
                                </Node>
                                <Node id="18" score="2" recordCount="158.0">
                                    <SimplePredicate field="income" operator="greaterThan" value="95.83393478393555"/>
                                    <ScoreDistribution value="0" recordCount="0.0" confidence="0.0"/>
                                    <ScoreDistribution value="1" recordCount="0.0" confidence="0.0"/>
                                    <ScoreDistribution value="2" recordCount="239.0" confidence="1.0"/>
                                </Node>
                            </Node>
                        </Node>
                    </Node>
                </TreeModel>
            </Segment>
            <Segment id="7" weight="1">
                <True/>
                <TreeModel modelName="DecisionTreeClassifier" functionName="classification" missingValuePenalty="1.0">
                    <MiningSchema>
                        <MiningField name="age" usageType="active"/>
                        <MiningField name="income" usageType="active"/>
                        <MiningField name="class" usageType="active"/>
                        <MiningField name="response" usageType="active"/>
                    </MiningSchema>
                    <Node id="0" recordCount="1892.0">
                        <True/>
                        <Node id="1" recordCount="1312.0">
                            <SimplePredicate field="income" operator="lessOrEqual" value="89.91773223876953"/>
                            <Node id="2" recordCount="1246.0">
                                <SimplePredicate field="class" operator="lessOrEqual" value="0.5"/>
                                <Node id="3" recordCount="861.0">
                                    <SimplePredicate field="age" operator="lessOrEqual" value="46.5"/>
                                    <Node id="4" score="1" recordCount="661.0">
                                        <SimplePredicate field="age" operator="lessOrEqual" value="38.5"/>
                                        <ScoreDistribution value="0" recordCount="515.0" confidence="0.4932950191570881"/>
                                        <ScoreDistribution value="1" recordCount="529.0" confidence="0.5067049808429118"/>
                                        <ScoreDistribution value="2" recordCount="0.0" confidence="0.0"/>
                                    </Node>
                                    <Node id="5" score="1" recordCount="200.0">
                                        <SimplePredicate field="age" operator="greaterThan" value="38.5"/>
                                        <ScoreDistribution value="0" recordCount="126.0" confidence="0.391304347826087"/>
                                        <ScoreDistribution value="1" recordCount="196.0" confidence="0.6086956521739131"/>
                                        <ScoreDistribution value="2" recordCount="0.0" confidence="0.0"/>
                                    </Node>
                                </Node>
                                <Node id="6" recordCount="385.0">
                                    <SimplePredicate field="age" operator="greaterThan" value="46.5"/>
                                    <Node id="7" score="0" recordCount="269.0">
                                        <SimplePredicate field="response" operator="lessOrEqual" value="0.5"/>
                                        <ScoreDistribution value="0" recordCount="414.0" confidence="1.0"/>
                                        <ScoreDistribution value="1" recordCount="0.0" confidence="0.0"/>
                                        <ScoreDistribution value="2" recordCount="0.0" confidence="0.0"/>
                                    </Node>
                                    <Node id="8" score="1" recordCount="116.0">
                                        <SimplePredicate field="response" operator="greaterThan" value="0.5"/>
                                        <ScoreDistribution value="0" recordCount="0.0" confidence="0.0"/>
                                        <ScoreDistribution value="1" recordCount="181.0" confidence="1.0"/>
                                        <ScoreDistribution value="2" recordCount="0.0" confidence="0.0"/>
                                    </Node>
                                </Node>
                            </Node>
                            <Node id="9" recordCount="66.0">
                                <SimplePredicate field="class" operator="greaterThan" value="0.5"/>
                                <Node id="10" score="1" recordCount="41.0">
                                    <SimplePredicate field="response" operator="lessOrEqual" value="0.5"/>
                                    <ScoreDistribution value="0" recordCount="0.0" confidence="0.0"/>
                                    <ScoreDistribution value="1" recordCount="69.0" confidence="1.0"/>
                                    <ScoreDistribution value="2" recordCount="0.0" confidence="0.0"/>
                                </Node>
                                <Node id="11" score="2" recordCount="25.0">
                                    <SimplePredicate field="response" operator="greaterThan" value="0.5"/>
                                    <ScoreDistribution value="0" recordCount="0.0" confidence="0.0"/>
                                    <ScoreDistribution value="1" recordCount="0.0" confidence="0.0"/>
                                    <ScoreDistribution value="2" recordCount="41.0" confidence="1.0"/>
                                </Node>
                            </Node>
                        </Node>
                        <Node id="12" recordCount="580.0">
                            <SimplePredicate field="income" operator="greaterThan" value="89.91773223876953"/>
                            <Node id="13" recordCount="164.0">
                                <SimplePredicate field="age" operator="lessOrEqual" value="52.5"/>
                                <Node id="14" recordCount="13.0">
                                    <SimplePredicate field="class" operator="lessOrEqual" value="0.5"/>
                                    <Node id="15" score="1" recordCount="10.0">
                                        <SimplePredicate field="income" operator="lessOrEqual" value="95.3329086303711"/>
                                        <ScoreDistribution value="0" recordCount="3.0" confidence="0.16666666666666666"/>
                                        <ScoreDistribution value="1" recordCount="15.0" confidence="0.8333333333333334"/>
                                        <ScoreDistribution value="2" recordCount="0.0" confidence="0.0"/>
                                    </Node>
                                    <Node id="16" score="0" recordCount="3.0">
                                        <SimplePredicate field="income" operator="greaterThan" value="95.3329086303711"/>
                                        <ScoreDistribution value="0" recordCount="3.0" confidence="1.0"/>
                                        <ScoreDistribution value="1" recordCount="0.0" confidence="0.0"/>
                                        <ScoreDistribution value="2" recordCount="0.0" confidence="0.0"/>
                                    </Node>
                                </Node>
                                <Node id="17" recordCount="151.0">
                                    <SimplePredicate field="class" operator="greaterThan" value="0.5"/>
                                    <Node id="18" score="2" recordCount="137.0">
                                        <SimplePredicate field="income" operator="lessOrEqual" value="118.13810348510742"/>
                                        <ScoreDistribution value="0" recordCount="0.0" confidence="0.0"/>
                                        <ScoreDistribution value="1" recordCount="95.0" confidence="0.4460093896713615"/>
                                        <ScoreDistribution value="2" recordCount="118.0" confidence="0.5539906103286385"/>
                                    </Node>
                                    <Node id="19" score="2" recordCount="14.0">
                                        <SimplePredicate field="income" operator="greaterThan" value="118.13810348510742"/>
                                        <ScoreDistribution value="0" recordCount="0.0" confidence="0.0"/>
                                        <ScoreDistribution value="1" recordCount="4.0" confidence="0.16"/>
                                        <ScoreDistribution value="2" recordCount="21.0" confidence="0.84"/>
                                    </Node>
                                </Node>
                            </Node>
                            <Node id="20" recordCount="416.0">
                                <SimplePredicate field="age" operator="greaterThan" value="52.5"/>
                                <Node id="21" score="1" recordCount="301.0">
                                    <SimplePredicate field="response" operator="lessOrEqual" value="0.5"/>
                                    <ScoreDistribution value="0" recordCount="0.0" confidence="0.0"/>
                                    <ScoreDistribution value="1" recordCount="477.0" confidence="1.0"/>
                                    <ScoreDistribution value="2" recordCount="0.0" confidence="0.0"/>
                                </Node>
                                <Node id="22" score="2" recordCount="115.0">
                                    <SimplePredicate field="response" operator="greaterThan" value="0.5"/>
                                    <ScoreDistribution value="0" recordCount="0.0" confidence="0.0"/>
                                    <ScoreDistribution value="1" recordCount="0.0" confidence="0.0"/>
                                    <ScoreDistribution value="2" recordCount="193.0" confidence="1.0"/>
                                </Node>
                            </Node>
                        </Node>
                    </Node>
                </TreeModel>
            </Segment>
            <Segment id="8" weight="1">
                <True/>
                <TreeModel modelName="DecisionTreeClassifier" functionName="classification" missingValuePenalty="1.0">
                    <MiningSchema>
                        <MiningField name="age" usageType="active"/>
                        <MiningField name="income" usageType="active"/>
                        <MiningField name="class" usageType="active"/>
                        <MiningField name="response" usageType="active"/>
                    </MiningSchema>
                    <Node id="0" recordCount="1903.0">
                        <True/>
                        <Node id="1" recordCount="1303.0">
                            <SimplePredicate field="income" operator="lessOrEqual" value="89.90166473388672"/>
                            <Node id="2" recordCount="733.0">
                                <SimplePredicate field="response" operator="lessOrEqual" value="0.5"/>
                                <Node id="3" score="0" recordCount="691.0">
                                    <SimplePredicate field="class" operator="lessOrEqual" value="0.5"/>
                                    <ScoreDistribution value="0" recordCount="1087.0" confidence="1.0"/>
                                    <ScoreDistribution value="1" recordCount="0.0" confidence="0.0"/>
                                    <ScoreDistribution value="2" recordCount="0.0" confidence="0.0"/>
                                </Node>
                                <Node id="4" score="1" recordCount="42.0">
                                    <SimplePredicate field="class" operator="greaterThan" value="0.5"/>
                                    <ScoreDistribution value="0" recordCount="0.0" confidence="0.0"/>
                                    <ScoreDistribution value="1" recordCount="66.0" confidence="1.0"/>
                                    <ScoreDistribution value="2" recordCount="0.0" confidence="0.0"/>
                                </Node>
                            </Node>
                            <Node id="5" recordCount="570.0">
                                <SimplePredicate field="response" operator="greaterThan" value="0.5"/>
                                <Node id="6" score="1" recordCount="468.0">
                                    <SimplePredicate field="income" operator="lessOrEqual" value="80.17462158203125"/>
                                    <ScoreDistribution value="0" recordCount="0.0" confidence="0.0"/>
                                    <ScoreDistribution value="1" recordCount="739.0" confidence="1.0"/>
                                    <ScoreDistribution value="2" recordCount="0.0" confidence="0.0"/>
                                </Node>
                                <Node id="7" recordCount="102.0">
                                    <SimplePredicate field="income" operator="greaterThan" value="80.17462158203125"/>
                                    <Node id="8" score="2" recordCount="2.0">
                                        <SimplePredicate field="income" operator="lessOrEqual" value="80.25246810913086"/>
                                        <ScoreDistribution value="0" recordCount="0.0" confidence="0.0"/>
                                        <ScoreDistribution value="1" recordCount="0.0" confidence="0.0"/>
                                        <ScoreDistribution value="2" recordCount="5.0" confidence="1.0"/>
                                    </Node>
                                    <Node id="9" score="1" recordCount="100.0">
                                        <SimplePredicate field="income" operator="greaterThan" value="80.25246810913086"/>
                                        <ScoreDistribution value="0" recordCount="0.0" confidence="0.0"/>
                                        <ScoreDistribution value="1" recordCount="122.0" confidence="0.8187919463087249"/>
                                        <ScoreDistribution value="2" recordCount="27.0" confidence="0.18120805369127516"/>
                                    </Node>
                                </Node>
                            </Node>
                        </Node>
                        <Node id="10" recordCount="600.0">
                            <SimplePredicate field="income" operator="greaterThan" value="89.90166473388672"/>
                            <Node id="11" recordCount="369.0">
                                <SimplePredicate field="response" operator="lessOrEqual" value="0.5"/>
                                <Node id="12" score="0" recordCount="6.0">
                                    <SimplePredicate field="class" operator="lessOrEqual" value="0.5"/>
                                    <ScoreDistribution value="0" recordCount="11.0" confidence="1.0"/>
                                    <ScoreDistribution value="1" recordCount="0.0" confidence="0.0"/>
                                    <ScoreDistribution value="2" recordCount="0.0" confidence="0.0"/>
                                </Node>
                                <Node id="13" score="1" recordCount="363.0">
                                    <SimplePredicate field="class" operator="greaterThan" value="0.5"/>
                                    <ScoreDistribution value="0" recordCount="0.0" confidence="0.0"/>
                                    <ScoreDistribution value="1" recordCount="574.0" confidence="1.0"/>
                                    <ScoreDistribution value="2" recordCount="0.0" confidence="0.0"/>
                                </Node>
                            </Node>
                            <Node id="14" recordCount="231.0">
                                <SimplePredicate field="response" operator="greaterThan" value="0.5"/>
                                <Node id="15" recordCount="7.0">
                                    <SimplePredicate field="age" operator="lessOrEqual" value="29.0"/>
                                    <Node id="16" score="1" recordCount="5.0">
                                        <SimplePredicate field="income" operator="lessOrEqual" value="95.28548431396484"/>
                                        <ScoreDistribution value="0" recordCount="0.0" confidence="0.0"/>
                                        <ScoreDistribution value="1" recordCount="9.0" confidence="1.0"/>
                                        <ScoreDistribution value="2" recordCount="0.0" confidence="0.0"/>
                                    </Node>
                                    <Node id="17" score="1" recordCount="2.0">
                                        <SimplePredicate field="income" operator="greaterThan" value="95.28548431396484"/>
                                        <ScoreDistribution value="0" recordCount="0.0" confidence="0.0"/>
                                        <ScoreDistribution value="1" recordCount="2.0" confidence="0.6666666666666666"/>
                                        <ScoreDistribution value="2" recordCount="1.0" confidence="0.3333333333333333"/>
                                    </Node>
                                </Node>
                                <Node id="18" recordCount="224.0">
                                    <SimplePredicate field="age" operator="greaterThan" value="29.0"/>
                                    <Node id="19" score="1" recordCount="2.0">
                                        <SimplePredicate field="income" operator="lessOrEqual" value="90.01472473144531"/>
                                        <ScoreDistribution value="0" recordCount="0.0" confidence="0.0"/>
                                        <ScoreDistribution value="1" recordCount="5.0" confidence="1.0"/>
                                        <ScoreDistribution value="2" recordCount="0.0" confidence="0.0"/>
                                    </Node>
                                    <Node id="20" score="2" recordCount="222.0">
                                        <SimplePredicate field="income" operator="greaterThan" value="90.01472473144531"/>
                                        <ScoreDistribution value="0" recordCount="0.0" confidence="0.0"/>
                                        <ScoreDistribution value="1" recordCount="0.0" confidence="0.0"/>
                                        <ScoreDistribution value="2" recordCount="352.0" confidence="1.0"/>
                                    </Node>
                                </Node>
                            </Node>
                        </Node>
                    </Node>
                </TreeModel>
            </Segment>
            <Segment id="9" weight="1">
                <True/>
                <TreeModel modelName="DecisionTreeClassifier" functionName="classification" missingValuePenalty="1.0">
                    <MiningSchema>
                        <MiningField name="age" usageType="active"/>
                        <MiningField name="income" usageType="active"/>
                        <MiningField name="class" usageType="active"/>
                        <MiningField name="response" usageType="active"/>
                    </MiningSchema>
                    <Node id="0" recordCount="1907.0">
                        <True/>
                        <Node id="1" recordCount="1319.0">
                            <SimplePredicate field="income" operator="lessOrEqual" value="90.05112838745117"/>
                            <Node id="2" recordCount="719.0">
                                <SimplePredicate field="response" operator="lessOrEqual" value="0.5"/>
                                <Node id="3" score="0" recordCount="561.0">
                                    <SimplePredicate field="income" operator="lessOrEqual" value="80.08127212524414"/>
                                    <ScoreDistribution value="0" recordCount="862.0" confidence="1.0"/>
                                    <ScoreDistribution value="1" recordCount="0.0" confidence="0.0"/>
                                    <ScoreDistribution value="2" recordCount="0.0" confidence="0.0"/>
                                </Node>
                                <Node id="4" recordCount="158.0">
                                    <SimplePredicate field="income" operator="greaterThan" value="80.08127212524414"/>
                                    <Node id="5" score="0" recordCount="60.0">
                                        <SimplePredicate field="age" operator="lessOrEqual" value="49.5"/>
                                        <ScoreDistribution value="0" recordCount="96.0" confidence="1.0"/>
                                        <ScoreDistribution value="1" recordCount="0.0" confidence="0.0"/>
                                        <ScoreDistribution value="2" recordCount="0.0" confidence="0.0"/>
                                    </Node>
                                    <Node id="6" score="0" recordCount="98.0">
                                        <SimplePredicate field="age" operator="greaterThan" value="49.5"/>
                                        <ScoreDistribution value="0" recordCount="93.0" confidence="0.6038961038961039"/>
                                        <ScoreDistribution value="1" recordCount="61.0" confidence="0.3961038961038961"/>
                                        <ScoreDistribution value="2" recordCount="0.0" confidence="0.0"/>
                                    </Node>
                                </Node>
                            </Node>
                            <Node id="7" recordCount="600.0">
                                <SimplePredicate field="response" operator="greaterThan" value="0.5"/>
                                <Node id="8" score="1" recordCount="581.0">
                                    <SimplePredicate field="class" operator="lessOrEqual" value="0.5"/>
                                    <ScoreDistribution value="0" recordCount="0.0" confidence="0.0"/>
                                    <ScoreDistribution value="1" recordCount="937.0" confidence="1.0"/>
                                    <ScoreDistribution value="2" recordCount="0.0" confidence="0.0"/>
                                </Node>
                                <Node id="9" score="2" recordCount="19.0">
                                    <SimplePredicate field="class" operator="greaterThan" value="0.5"/>
                                    <ScoreDistribution value="0" recordCount="0.0" confidence="0.0"/>
                                    <ScoreDistribution value="1" recordCount="0.0" confidence="0.0"/>
                                    <ScoreDistribution value="2" recordCount="24.0" confidence="1.0"/>
                                </Node>
                            </Node>
                        </Node>
                        <Node id="10" recordCount="588.0">
                            <SimplePredicate field="income" operator="greaterThan" value="90.05112838745117"/>
                            <Node id="11" recordCount="373.0">
                                <SimplePredicate field="response" operator="lessOrEqual" value="0.5"/>
                                <Node id="12" score="0" recordCount="6.0">
                                    <SimplePredicate field="class" operator="lessOrEqual" value="0.5"/>
                                    <ScoreDistribution value="0" recordCount="8.0" confidence="1.0"/>
                                    <ScoreDistribution value="1" recordCount="0.0" confidence="0.0"/>
                                    <ScoreDistribution value="2" recordCount="0.0" confidence="0.0"/>
                                </Node>
                                <Node id="13" score="1" recordCount="367.0">
                                    <SimplePredicate field="class" operator="greaterThan" value="0.5"/>
                                    <ScoreDistribution value="0" recordCount="0.0" confidence="0.0"/>
                                    <ScoreDistribution value="1" recordCount="576.0" confidence="1.0"/>
                                    <ScoreDistribution value="2" recordCount="0.0" confidence="0.0"/>
                                </Node>
                            </Node>
                            <Node id="14" recordCount="215.0">
                                <SimplePredicate field="response" operator="greaterThan" value="0.5"/>
                                <Node id="15" score="1" recordCount="6.0">
                                    <SimplePredicate field="class" operator="lessOrEqual" value="0.5"/>
                                    <ScoreDistribution value="0" recordCount="0.0" confidence="0.0"/>
                                    <ScoreDistribution value="1" recordCount="10.0" confidence="1.0"/>
                                    <ScoreDistribution value="2" recordCount="0.0" confidence="0.0"/>
                                </Node>
                                <Node id="16" score="2" recordCount="209.0">
                                    <SimplePredicate field="class" operator="greaterThan" value="0.5"/>
                                    <ScoreDistribution value="0" recordCount="0.0" confidence="0.0"/>
                                    <ScoreDistribution value="1" recordCount="0.0" confidence="0.0"/>
                                    <ScoreDistribution value="2" recordCount="333.0" confidence="1.0"/>
                                </Node>
                            </Node>
                        </Node>
                    </Node>
                </TreeModel>
            </Segment>
            <Segment id="10" weight="1">
                <True/>
                <TreeModel modelName="DecisionTreeClassifier" functionName="classification" missingValuePenalty="1.0">
                    <MiningSchema>
                        <MiningField name="age" usageType="active"/>
                        <MiningField name="income" usageType="active"/>
                        <MiningField name="class" usageType="active"/>
                        <MiningField name="response" usageType="active"/>
                    </MiningSchema>
                    <Node id="0" recordCount="1879.0">
                        <True/>
                        <Node id="1" recordCount="1091.0">
                            <SimplePredicate field="response" operator="lessOrEqual" value="0.5"/>
                            <Node id="2" recordCount="719.0">
                                <SimplePredicate field="income" operator="lessOrEqual" value="90.15522766113281"/>
                                <Node id="3" score="0" recordCount="675.0">
                                    <SimplePredicate field="class" operator="lessOrEqual" value="0.5"/>
                                    <ScoreDistribution value="0" recordCount="1070.0" confidence="1.0"/>
                                    <ScoreDistribution value="1" recordCount="0.0" confidence="0.0"/>
                                    <ScoreDistribution value="2" recordCount="0.0" confidence="0.0"/>
                                </Node>
                                <Node id="4" score="1" recordCount="44.0">
                                    <SimplePredicate field="class" operator="greaterThan" value="0.5"/>
                                    <ScoreDistribution value="0" recordCount="0.0" confidence="0.0"/>
                                    <ScoreDistribution value="1" recordCount="79.0" confidence="1.0"/>
                                    <ScoreDistribution value="2" recordCount="0.0" confidence="0.0"/>
                                </Node>
                            </Node>
                            <Node id="5" recordCount="372.0">
                                <SimplePredicate field="income" operator="greaterThan" value="90.15522766113281"/>
                                <Node id="6" recordCount="6.0">
                                    <SimplePredicate field="age" operator="lessOrEqual" value="29.5"/>
                                    <Node id="7" score="0" recordCount="2.0">
                                        <SimplePredicate field="age" operator="lessOrEqual" value="20.5"/>
                                        <ScoreDistribution value="0" recordCount="2.0" confidence="0.6666666666666666"/>
                                        <ScoreDistribution value="1" recordCount="1.0" confidence="0.3333333333333333"/>
                                        <ScoreDistribution value="2" recordCount="0.0" confidence="0.0"/>
                                    </Node>
                                    <Node id="8" score="0" recordCount="4.0">
                                        <SimplePredicate field="age" operator="greaterThan" value="20.5"/>
                                        <ScoreDistribution value="0" recordCount="7.0" confidence="1.0"/>
                                        <ScoreDistribution value="1" recordCount="0.0" confidence="0.0"/>
                                        <ScoreDistribution value="2" recordCount="0.0" confidence="0.0"/>
                                    </Node>
                                </Node>
                                <Node id="9" score="1" recordCount="366.0">
                                    <SimplePredicate field="age" operator="greaterThan" value="29.5"/>
                                    <ScoreDistribution value="0" recordCount="0.0" confidence="0.0"/>
                                    <ScoreDistribution value="1" recordCount="577.0" confidence="1.0"/>
                                    <ScoreDistribution value="2" recordCount="0.0" confidence="0.0"/>
                                </Node>
                            </Node>
                        </Node>
                        <Node id="10" recordCount="788.0">
                            <SimplePredicate field="response" operator="greaterThan" value="0.5"/>
                            <Node id="11" score="1" recordCount="559.0">
                                <SimplePredicate field="class" operator="lessOrEqual" value="0.5"/>
                                <ScoreDistribution value="0" recordCount="0.0" confidence="0.0"/>
                                <ScoreDistribution value="1" recordCount="881.0" confidence="1.0"/>
                                <ScoreDistribution value="2" recordCount="0.0" confidence="0.0"/>
                            </Node>
                            <Node id="12" score="2" recordCount="229.0">
                                <SimplePredicate field="class" operator="greaterThan" value="0.5"/>
                                <ScoreDistribution value="0" recordCount="0.0" confidence="0.0"/>
                                <ScoreDistribution value="1" recordCount="0.0" confidence="0.0"/>
                                <ScoreDistribution value="2" recordCount="383.0" confidence="1.0"/>
                            </Node>
                        </Node>
                    </Node>
                </TreeModel>
            </Segment>
            <Segment id="11" weight="1">
                <True/>
                <TreeModel modelName="DecisionTreeClassifier" functionName="classification" missingValuePenalty="1.0">
                    <MiningSchema>
                        <MiningField name="age" usageType="active"/>
                        <MiningField name="income" usageType="active"/>
                        <MiningField name="class" usageType="active"/>
                        <MiningField name="response" usageType="active"/>
                    </MiningSchema>
                    <Node id="0" recordCount="1889.0">
                        <True/>
                        <Node id="1" recordCount="1304.0">
                            <SimplePredicate field="income" operator="lessOrEqual" value="89.90166473388672"/>
                            <Node id="2" recordCount="737.0">
                                <SimplePredicate field="response" operator="lessOrEqual" value="0.5"/>
                                <Node id="3" score="0" recordCount="695.0">
                                    <SimplePredicate field="class" operator="lessOrEqual" value="0.5"/>
                                    <ScoreDistribution value="0" recordCount="1111.0" confidence="1.0"/>
                                    <ScoreDistribution value="1" recordCount="0.0" confidence="0.0"/>
                                    <ScoreDistribution value="2" recordCount="0.0" confidence="0.0"/>
                                </Node>
                                <Node id="4" score="1" recordCount="42.0">
                                    <SimplePredicate field="class" operator="greaterThan" value="0.5"/>
                                    <ScoreDistribution value="0" recordCount="0.0" confidence="0.0"/>
                                    <ScoreDistribution value="1" recordCount="76.0" confidence="1.0"/>
                                    <ScoreDistribution value="2" recordCount="0.0" confidence="0.0"/>
                                </Node>
                            </Node>
                            <Node id="5" recordCount="567.0">
                                <SimplePredicate field="response" operator="greaterThan" value="0.5"/>
                                <Node id="6" score="1" recordCount="461.0">
                                    <SimplePredicate field="age" operator="lessOrEqual" value="49.5"/>
                                    <ScoreDistribution value="0" recordCount="0.0" confidence="0.0"/>
                                    <ScoreDistribution value="1" recordCount="707.0" confidence="1.0"/>
                                    <ScoreDistribution value="2" recordCount="0.0" confidence="0.0"/>
                                </Node>
                                <Node id="7" recordCount="106.0">
                                    <SimplePredicate field="age" operator="greaterThan" value="49.5"/>
                                    <Node id="8" score="1" recordCount="51.0">
                                        <SimplePredicate field="age" operator="lessOrEqual" value="59.5"/>
                                        <ScoreDistribution value="0" recordCount="0.0" confidence="0.0"/>
                                        <ScoreDistribution value="1" recordCount="43.0" confidence="0.589041095890411"/>
                                        <ScoreDistribution value="2" recordCount="30.0" confidence="0.410958904109589"/>
                                    </Node>
                                    <Node id="9" score="1" recordCount="55.0">
                                        <SimplePredicate field="age" operator="greaterThan" value="59.5"/>
                                        <ScoreDistribution value="0" recordCount="0.0" confidence="0.0"/>
                                        <ScoreDistribution value="1" recordCount="89.0" confidence="1.0"/>
                                        <ScoreDistribution value="2" recordCount="0.0" confidence="0.0"/>
                                    </Node>
                                </Node>
                            </Node>
                        </Node>
                        <Node id="10" recordCount="585.0">
                            <SimplePredicate field="income" operator="greaterThan" value="89.90166473388672"/>
                            <Node id="11" recordCount="17.0">
                                <SimplePredicate field="class" operator="lessOrEqual" value="0.5"/>
                                <Node id="12" score="0" recordCount="4.0">
                                    <SimplePredicate field="age" operator="lessOrEqual" value="23.5"/>
                                    <ScoreDistribution value="0" recordCount="7.0" confidence="1.0"/>
                                    <ScoreDistribution value="1" recordCount="0.0" confidence="0.0"/>
                                    <ScoreDistribution value="2" recordCount="0.0" confidence="0.0"/>
                                </Node>
                                <Node id="13" recordCount="13.0">
                                    <SimplePredicate field="age" operator="greaterThan" value="23.5"/>
                                    <Node id="14" score="1" recordCount="10.0">
                                        <SimplePredicate field="age" operator="lessOrEqual" value="32.0"/>
                                        <ScoreDistribution value="0" recordCount="5.0" confidence="0.3333333333333333"/>
                                        <ScoreDistribution value="1" recordCount="10.0" confidence="0.6666666666666666"/>
                                        <ScoreDistribution value="2" recordCount="0.0" confidence="0.0"/>
                                    </Node>
                                    <Node id="15" score="1" recordCount="3.0">
                                        <SimplePredicate field="age" operator="greaterThan" value="32.0"/>
                                        <ScoreDistribution value="0" recordCount="0.0" confidence="0.0"/>
                                        <ScoreDistribution value="1" recordCount="6.0" confidence="1.0"/>
                                        <ScoreDistribution value="2" recordCount="0.0" confidence="0.0"/>
                                    </Node>
                                </Node>
                            </Node>
                            <Node id="16" recordCount="568.0">
                                <SimplePredicate field="class" operator="greaterThan" value="0.5"/>
                                <Node id="17" score="1" recordCount="355.0">
                                    <SimplePredicate field="response" operator="lessOrEqual" value="0.5"/>
                                    <ScoreDistribution value="0" recordCount="0.0" confidence="0.0"/>
                                    <ScoreDistribution value="1" recordCount="563.0" confidence="1.0"/>
                                    <ScoreDistribution value="2" recordCount="0.0" confidence="0.0"/>
                                </Node>
                                <Node id="18" score="2" recordCount="213.0">
                                    <SimplePredicate field="response" operator="greaterThan" value="0.5"/>
                                    <ScoreDistribution value="0" recordCount="0.0" confidence="0.0"/>
                                    <ScoreDistribution value="1" recordCount="0.0" confidence="0.0"/>
                                    <ScoreDistribution value="2" recordCount="353.0" confidence="1.0"/>
                                </Node>
                            </Node>
                        </Node>
                    </Node>
                </TreeModel>
            </Segment>
            <Segment id="12" weight="1">
                <True/>
                <TreeModel modelName="DecisionTreeClassifier" functionName="classification" missingValuePenalty="1.0">
                    <MiningSchema>
                        <MiningField name="age" usageType="active"/>
                        <MiningField name="income" usageType="active"/>
                        <MiningField name="class" usageType="active"/>
                        <MiningField name="response" usageType="active"/>
                    </MiningSchema>
                    <Node id="0" recordCount="1912.0">
                        <True/>
                        <Node id="1" recordCount="1325.0">
                            <SimplePredicate field="income" operator="lessOrEqual" value="90.16422271728516"/>
                            <Node id="2" recordCount="732.0">
                                <SimplePredicate field="response" operator="lessOrEqual" value="0.5"/>
                                <Node id="3" score="0" recordCount="692.0">
                                    <SimplePredicate field="class" operator="lessOrEqual" value="0.5"/>
                                    <ScoreDistribution value="0" recordCount="1056.0" confidence="1.0"/>
                                    <ScoreDistribution value="1" recordCount="0.0" confidence="0.0"/>
                                    <ScoreDistribution value="2" recordCount="0.0" confidence="0.0"/>
                                </Node>
                                <Node id="4" score="1" recordCount="40.0">
                                    <SimplePredicate field="class" operator="greaterThan" value="0.5"/>
                                    <ScoreDistribution value="0" recordCount="0.0" confidence="0.0"/>
                                    <ScoreDistribution value="1" recordCount="58.0" confidence="1.0"/>
                                    <ScoreDistribution value="2" recordCount="0.0" confidence="0.0"/>
                                </Node>
                            </Node>
                            <Node id="5" recordCount="593.0">
                                <SimplePredicate field="response" operator="greaterThan" value="0.5"/>
                                <Node id="6" recordCount="488.0">
                                    <SimplePredicate field="age" operator="lessOrEqual" value="51.5"/>
                                    <Node id="7" score="1" recordCount="481.0">
                                        <SimplePredicate field="age" operator="lessOrEqual" value="49.5"/>
                                        <ScoreDistribution value="0" recordCount="0.0" confidence="0.0"/>
                                        <ScoreDistribution value="1" recordCount="742.0" confidence="1.0"/>
                                        <ScoreDistribution value="2" recordCount="0.0" confidence="0.0"/>
                                    </Node>
                                    <Node id="8" score="1" recordCount="7.0">
                                        <SimplePredicate field="age" operator="greaterThan" value="49.5"/>
                                        <ScoreDistribution value="0" recordCount="0.0" confidence="0.0"/>
                                        <ScoreDistribution value="1" recordCount="11.0" confidence="0.9166666666666666"/>
                                        <ScoreDistribution value="2" recordCount="1.0" confidence="0.08333333333333333"/>
                                    </Node>
                                </Node>
                                <Node id="9" recordCount="105.0">
                                    <SimplePredicate field="age" operator="greaterThan" value="51.5"/>
                                    <Node id="10" score="1" recordCount="87.0">
                                        <SimplePredicate field="class" operator="lessOrEqual" value="0.5"/>
                                        <ScoreDistribution value="0" recordCount="0.0" confidence="0.0"/>
                                        <ScoreDistribution value="1" recordCount="145.0" confidence="1.0"/>
                                        <ScoreDistribution value="2" recordCount="0.0" confidence="0.0"/>
                                    </Node>
                                    <Node id="11" score="2" recordCount="18.0">
                                        <SimplePredicate field="class" operator="greaterThan" value="0.5"/>
                                        <ScoreDistribution value="0" recordCount="0.0" confidence="0.0"/>
                                        <ScoreDistribution value="1" recordCount="0.0" confidence="0.0"/>
                                        <ScoreDistribution value="2" recordCount="31.0" confidence="1.0"/>
                                    </Node>
                                </Node>
                            </Node>
                        </Node>
                        <Node id="12" recordCount="587.0">
                            <SimplePredicate field="income" operator="greaterThan" value="90.16422271728516"/>
                            <Node id="13" recordCount="10.0">
                                <SimplePredicate field="class" operator="lessOrEqual" value="0.5"/>
                                <Node id="14" score="0" recordCount="3.0">
                                    <SimplePredicate field="age" operator="lessOrEqual" value="23.5"/>
                                    <ScoreDistribution value="0" recordCount="5.0" confidence="1.0"/>
                                    <ScoreDistribution value="1" recordCount="0.0" confidence="0.0"/>
                                    <ScoreDistribution value="2" recordCount="0.0" confidence="0.0"/>
                                </Node>
                                <Node id="15" recordCount="7.0">
                                    <SimplePredicate field="age" operator="greaterThan" value="23.5"/>
                                    <Node id="16" score="1" recordCount="5.0">
                                        <SimplePredicate field="income" operator="lessOrEqual" value="94.77572631835938"/>
                                        <ScoreDistribution value="0" recordCount="1.0" confidence="0.125"/>
                                        <ScoreDistribution value="1" recordCount="7.0" confidence="0.875"/>
                                        <ScoreDistribution value="2" recordCount="0.0" confidence="0.0"/>
                                    </Node>
                                    <Node id="17" score="0" recordCount="2.0">
                                        <SimplePredicate field="income" operator="greaterThan" value="94.77572631835938"/>
                                        <ScoreDistribution value="0" recordCount="2.0" confidence="1.0"/>
                                        <ScoreDistribution value="1" recordCount="0.0" confidence="0.0"/>
                                        <ScoreDistribution value="2" recordCount="0.0" confidence="0.0"/>
                                    </Node>
                                </Node>
                            </Node>
                            <Node id="18" recordCount="577.0">
                                <SimplePredicate field="class" operator="greaterThan" value="0.5"/>
                                <Node id="19" recordCount="73.0">
                                    <SimplePredicate field="income" operator="lessOrEqual" value="93.24880981445312"/>
                                    <Node id="20" score="1" recordCount="34.0">
                                        <SimplePredicate field="response" operator="lessOrEqual" value="0.5"/>
                                        <ScoreDistribution value="0" recordCount="0.0" confidence="0.0"/>
                                        <ScoreDistribution value="1" recordCount="54.0" confidence="1.0"/>
                                        <ScoreDistribution value="2" recordCount="0.0" confidence="0.0"/>
                                    </Node>
                                    <Node id="21" score="2" recordCount="39.0">
                                        <SimplePredicate field="response" operator="greaterThan" value="0.5"/>
                                        <ScoreDistribution value="0" recordCount="0.0" confidence="0.0"/>
                                        <ScoreDistribution value="1" recordCount="0.0" confidence="0.0"/>
                                        <ScoreDistribution value="2" recordCount="59.0" confidence="1.0"/>
                                    </Node>
                                </Node>
                                <Node id="22" recordCount="504.0">
                                    <SimplePredicate field="income" operator="greaterThan" value="93.24880981445312"/>
                                    <Node id="23" score="1" recordCount="334.0">
